{"learner":{"attributes":{"scikit_learn":"{\"_estimator_type\": \"regressor\"}"},"feature_names":["bed","bath","acre_lot","house_size"],"feature_types":["float","float","float","float"],"gradient_booster":{"model":{"cats":{"enc":[],"feature_segments":[],"sorted_idx":[]},"gbtree_model_param":{"num_parallel_tree":"1","num_trees":"100"},"iteration_indptr":[0,1,2,3,4,5,6,7,8,9,10,11,12,13,14,15,16,17,18,19,20,21,22,23,24,25,26,27,28,29,30,31,32,33,34,35,36,37,38,39,40,41,42,43,44,45,46,47,48,49,50,51,52,53,54,55,56,57,58,59,60,61,62,63,64,65,66,67,68,69,70,71,72,73,74,75,76,77,78,79,80,81,82,83,84,85,86,87,88,89,90,91,92,93,94,95,96,97,98,99,100],"tree_info":[0,0,0,0,0,0,0,0,0,0,0,0,0,0,0,0,0,0,0,0,0,0,0,0,0,0,0,0,0,0,0,0,0,0,0,0,0,0,0,0,0,0,0,0,0,0,0,0,0,0,0,0,0,0,0,0,0,0,0,0,0,0,0,0,0,0,0,0,0,0,0,0,0,0,0,0,0,0,0,0,0,0,0,0,0,0,0,0,0,0,0,0,0,0,0,0,0,0,0,0],"trees":[{"base_weights":[-1.8727288E-2,-5.9649207E4,3.0871572E6,-1.4708917E5,3.600511E5,2.280476E6,6.862396E6,-2.1001072E5,-2.4028887E3,2.5373534E5,9.579386E5,1.8019438E6,3.2406442E6,5.0377925E6,1.1405723E7,-3.1510022E5,-1.775426E5,-7.5276555E4,4.9297445E4,1.4333694E5,3.9030272E5,8.496467E5,1.29135E6,9.04817E5,2.0099208E6,2.5061425E6,3.772845E6,3.7752815E6,6.1583685E6,1.3235163E7,4.4932135E6,-3.176499E5,-2.956591E4,-2.0674525E5,-1.2866448E5,-1.1916535E5,-4.167195E4,4.41746E4,5.3048406E5,1.3338106E5,8.0276175E5,3.0973506E5,5.7016906E5,9.8684775E5,7.363272E5,1.6542802E6,1.1119242E6,4.8047262E5,1.1043092E6,1.7659826E6,2.5477308E6,2.764788E6,1.9702388E6,3.9557942E6,1.956545E6,4.0755608E6,2.2085932E6,7.095634E6,5.079103E6,1.257169E7,5.946092E7,3.4986455E6,9.183669E6,-9.534274E4,1.021238E6,-1.5060665E4,3.20366E5,-5.469317E4,-7.005358E4,-3.933651E4,1.4644695E5,-5.0460297E4,-3.0940447E4,-2.898908E3,-2.6660979E4,8.202633E3,4.0558758E4,1.8895706E5,8.656397E4,-1.9481998E4,4.964955E4,1.9068812E5,3.7290606E5,1.5001169E5,8.428097E4,1.6736428E5,5.233866E5,2.6200577E5,3.4724906E5,1.9081469E5,2.4674295E5,9.416474E5,4.6889562E5,3.237343E5,6.750707E5,1.2706708E5,9.64595E5,3.2096266E5,1.2172429E6,5.5477725E5,2.801211E5,8.701988E5,4.796141E5,7.238556E5,9.558674E5,6.485267E5,4.3853753E5,1.02475175E6,1.421858E6,4.868755E5,6.7151875E5,1.1771972E6,2.2049852E6,8.1004844E5,9.658244E4,2.1737292E6,3.9676072E5,1.437428E6,3.2186645E6,3.279712E6,5.2479105E6,1.4617481E6,2.5782916E7,6.692289E5,1.29985E6,3.2628192E6,9.5102275E5],"categories":[],"categories_nodes":[],"categories_segments":[],"categories_sizes":[],"default_left":[0,0,0,0,0,0,0,0,0,0,0,0,0,0,0,0,0,0,0,0,0,0,0,0,0,0,0,0,0,0,0,0,0,0,0,0,0,0,0,0,0,0,0,0,0,0,0,0,0,0,0,0,0,0,0,0,0,0,0,0,0,0,0,0,0,0,0,0,0,0,0,0,0,0,0,0,0,0,0,0,0,0,0,0,0,0,0,0,0,0,0,0,0,0,0,0,0,0,0,0,0,0,0,0,0,0,0,0,0,0,0,0,0,0,0,0,0,0,0,0,0,0,0,0,0,0,0],"id":0,"left_children":[1,3,5,7,9,11,13,15,17,19,21,23,25,27,29,31,33,35,37,39,41,43,45,47,49,51,53,55,57,59,61,63,65,67,69,71,73,75,77,79,81,83,85,87,89,91,93,95,97,99,101,103,105,107,109,111,113,115,117,119,121,123,125,-1,-1,-1,-1,-1,-1,-1,-1,-1,-1,-1,-1,-1,-1,-1,-1,-1,-1,-1,-1,-1,-1,-1,-1,-1,-1,-1,-1,-1,-1,-1,-1,-1,-1,-1,-1,-1,-1,-1,-1,-1,-1,-1,-1,-1,-1,-1,-1,-1,-1,-1,-1,-1,-1,-1,-1,-1,-1,-1,-1,-1,-1,-1,-1],"loss_changes":[1.5982602E17,3.1248047E16,5.0087513E16,6.4152166E15,9.331714E15,6.2232186E15,2.3949717E16,1.6755977E15,8.046523E14,1.8792248E15,7.991517E14,1.6867475E15,1.7527289E15,2.9024358E15,1.0424083E16,8.437785E13,5.3550296E14,1.3072119E14,3.0794926E14,4.5242233E14,8.072708E14,2.5943106E14,3.5188774E14,1.4380342E14,9.5924014E14,2.5749403E14,8.6020464E14,4.4968093E14,1.0706022E15,1.934102E16,7.842406E14,6.915971E13,2.3312455E13,1.535644E14,2.1274825E14,3.0195969E13,7.584061E13,1.8939787E14,3.1457548E13,4.3253596E14,7.46319E13,2.1076988E14,2.477729E14,1.4552638E14,7.8677895E13,2.3837283E14,1.3344302E14,8.3781784E13,1.13515986E14,3.487492E14,7.623696E14,1.8171577E14,5.7310433E13,9.875891E14,1.902912E13,3.7663427E14,1.4659012E14,4.957144E14,7.8075097E14,5.0285305E15,1.2591805E16,1.4475167E14,2.7084332E14,0E0,0E0,0E0,0E0,0E0,0E0,0E0,0E0,0E0,0E0,0E0,0E0,0E0,0E0,0E0,0E0,0E0,0E0,0E0,0E0,0E0,0E0,0E0,0E0,0E0,0E0,0E0,0E0,0E0,0E0,0E0,0E0,0E0,0E0,0E0,0E0,0E0,0E0,0E0,0E0,0E0,0E0,0E0,0E0,0E0,0E0,0E0,0E0,0E0,0E0,0E0,0E0,0E0,0E0,0E0,0E0,0E0,0E0,0E0,0E0,0E0,0E0,0E0,0E0],"parents":[2147483647,0,0,1,1,2,2,3,3,4,4,5,5,6,6,7,7,8,8,9,9,10,10,11,11,12,12,13,13,14,14,15,15,16,16,17,17,18,18,19,19,20,20,21,21,22,22,23,23,24,24,25,25,26,26,27,27,28,28,29,29,30,30,31,31,32,32,33,33,34,34,35,35,36,36,37,37,38,38,39,39,40,40,41,41,42,42,43,43,44,44,45,45,46,46,47,47,48,48,49,49,50,50,51,51,52,52,53,53,54,54,55,55,56,56,57,57,58,58,59,59,60,60,61,61,62,62],"right_children":[2,4,6,8,10,12,14,16,18,20,22,24,26,28,30,32,34,36,38,40,42,44,46,48,50,52,54,56,58,60,62,64,66,68,70,72,74,76,78,80,82,84,86,88,90,92,94,96,98,100,102,104,106,108,110,112,114,116,118,120,122,124,126,-1,-1,-1,-1,-1,-1,-1,-1,-1,-1,-1,-1,-1,-1,-1,-1,-1,-1,-1,-1,-1,-1,-1,-1,-1,-1,-1,-1,-1,-1,-1,-1,-1,-1,-1,-1,-1,-1,-1,-1,-1,-1,-1,-1,-1,-1,-1,-1,-1,-1,-1,-1,-1,-1,-1,-1,-1,-1,-1,-1,-1,-1,-1,-1],"split_conditions":[6E0,2.706E3,8.143E3,3E0,5E0,6.028E3,1E1,2E0,2E3,4E0,5E3,3.733E3,7E0,8E0,1.6E1,2.46E1,1.686E3,1.651E3,5E0,2.46E1,3.8E3,5E0,5E0,2.907E3,7E0,6E0,1E1,7E0,1.5E0,2.1E1,3.7E1,1.7E1,2.33E3,1.9E-1,4.8E1,1.328E3,2E-1,4E0,2.7E-1,3E0,3.8E3,4E0,4.8E1,4.023E3,3.947E3,1.9E-1,2.46E1,1.7E1,4.8E1,7E0,8E0,6.754E3,7E0,8E0,6.754E3,4.8E1,9E0,1.2E1,4.8E1,1.3E1,6.5E-1,1.8E1,1.4E0,-9.534274E4,1.021238E6,-1.5060665E4,3.20366E5,-5.469317E4,-7.005358E4,-3.933651E4,1.4644695E5,-5.0460297E4,-3.0940447E4,-2.898908E3,-2.6660979E4,8.202633E3,4.0558758E4,1.8895706E5,8.656397E4,-1.9481998E4,4.964955E4,1.9068812E5,3.7290606E5,1.5001169E5,8.428097E4,1.6736428E5,5.233866E5,2.6200577E5,3.4724906E5,1.9081469E5,2.4674295E5,9.416474E5,4.6889562E5,3.237343E5,6.750707E5,1.2706708E5,9.64595E5,3.2096266E5,1.2172429E6,5.5477725E5,2.801211E5,8.701988E5,4.796141E5,7.238556E5,9.558674E5,6.485267E5,4.3853753E5,1.02475175E6,1.421858E6,4.868755E5,6.7151875E5,1.1771972E6,2.2049852E6,8.1004844E5,9.658244E4,2.1737292E6,3.9676072E5,1.437428E6,3.2186645E6,3.279712E6,5.2479105E6,1.4617481E6,2.5782916E7,6.692289E5,1.29985E6,3.2628192E6,9.5102275E5],"split_indices":[1,3,3,1,1,3,1,1,3,1,3,3,1,1,0,2,3,3,1,2,3,0,0,3,1,0,0,0,2,1,1,0,3,2,2,3,2,1,2,1,3,0,2,3,3,2,2,1,2,0,0,3,0,1,3,2,0,0,2,1,2,1,2,0,0,0,0,0,0,0,0,0,0,0,0,0,0,0,0,0,0,0,0,0,0,0,0,0,0,0,0,0,0,0,0,0,0,0,0,0,0,0,0,0,0,0,0,0,0,0,0,0,0,0,0,0,0,0,0,0,0,0,0,0,0,0,0],"split_type":[0,0,0,0,0,0,0,0,0,0,0,0,0,0,0,0,0,0,0,0,0,0,0,0,0,0,0,0,0,0,0,0,0,0,0,0,0,0,0,0,0,0,0,0,0,0,0,0,0,0,0,0,0,0,0,0,0,0,0,0,0,0,0,0,0,0,0,0,0,0,0,0,0,0,0,0,0,0,0,0,0,0,0,0,0,0,0,0,0,0,0,0,0,0,0,0,0,0,0,0,0,0,0,0,0,0,0,0,0,0,0,0,0,0,0,0,0,0,0,0,0,0,0,0,0,0,0],"sum_hessian":[8.67927E5,8.51476E5,1.6451E4,7.04667E5,1.46809E5,1.3556E4,2.895E3,4.91097E5,2.1357E5,1.24646E5,2.2163E4,9.049E3,4.507E3,2.067E3,8.28E2,1.15913E5,3.75184E5,8.8635E4,1.24935E5,6.8928E4,5.5718E4,1.6732E4,5.431E3,1.704E3,7.345E3,1.896E3,2.611E3,9.74E2,1.093E3,6.54E2,1.74E2,1.14887E5,1.026E3,2.34861E5,1.40323E5,3.8435E4,5.02E4,1.2362E5,1.315E3,6.7904E4,1.024E3,3.8483E4,1.7235E4,7.565E3,9.167E3,1.794E3,3.637E3,5.46E2,1.158E3,5.056E3,2.289E3,1.276E3,6.2E2,2.371E3,2.4E2,8.16E2,1.58E2,5.82E2,5.11E2,6.46E2,8E0,1.45E2,2.9E1,1.14883E5,4E0,1.008E3,1.8E1,1.22783E5,1.12078E5,1.39767E5,5.56E2,9.467E3,2.8968E4,2.9914E4,2.0286E4,1.04328E5,1.9292E4,9.31E2,3.84E2,9.464E3,5.844E4,7.44E2,2.8E2,5.056E3,3.3427E4,1.7058E4,1.77E2,4.547E3,3.018E3,4.24E3,4.927E3,1.02E2,1.692E3,3.537E3,1E2,5.36E2,1E1,1.146E3,1.2E1,4.595E3,4.61E2,1.667E3,6.22E2,6.99E2,5.77E2,4.48E2,1.72E2,1.407E3,9.64E2,1.13E2,1.27E2,7.82E2,3.4E1,1.25E2,3.3E1,5.67E2,1.5E1,4.88E2,2.3E1,4.87E2,1.59E2,3E0,5E0,5.9E1,8.6E1,2.2E1,7E0],"tree_param":{"num_deleted":"0","num_feature":"4","num_nodes":"127","size_leaf_vector":"1"}},{"base_weights":[8.1863495E1,-4.174692E4,2.1649402E6,-9.401877E4,3.1179072E5,1.5971584E6,4.8221405E6,-1.4617453E5,1.0860899E4,2.2356977E5,6.792816E5,9.834511E5,2.0088481E6,3.532023E6,8.034615E6,-2.2044362E5,-1.2343953E5,-3.4208336E4,7.013768E4,1.8575288E5,4.113282E5,5.889196E5,8.75956E5,4.9652038E5,1.1170358E6,1.5531545E6,2.4997448E6,2.6470958E6,4.3174635E6,9.734953E6,3.9653795E6,-2.2053173E5,1.501563E6,-1.5178928E5,-9.36082E4,-7.506141E4,-8.939743E3,6.3197617E4,4.5267903E5,1.2296101E5,2.5190238E5,3.9634953E5,1.3162332E6,8.014064E5,5.286337E5,8.499547E5,2.4965345E6,4.7838947E5,4.6398475E6,1.2147846E6,6.007112E5,1.7028701E6,1.2079559E6,2.6006088E6,1.2477988E6,1.9599114E6,3.090275E6,1.5496343E7,4.2622235E6,7.9716935E6,1.6278783E7,2.7486802E6,1.0162663E7,-6.660068E4,2.3068316E4,-4.718086E4,-1.3872189E4,-2.903927E4,5.4788504E4,-2.4090736E4,4.0621453E3,9.205785E3,-1.4549241E4,1.7712879E4,1.5367881E5,1.6314775E5,5.3658418E4,-1.0422375E4,4.3576418E4,1.335604E5,6.769872E4,7.7016086E4,1.3506955E5,2.6833794E5,5.2890594E5,2.661884E5,1.3678092E5,1.8417005E5,1.3671144E5,3.2075297E5,2.2154739E5,9.567592E5,5.771653E5,1.2717537E5,3.9849472E5,1.8219131E6,-1.6394056E5,3.613959E5,3.8791922E6,1.6320822E5,9.2549544E5,4.717164E5,6.696033E5,3.7430622E5,7.439376E4,7.704715E5,3.6293268E6,2.2195567E5,4.4747116E5,7.397702E5,3.3441728E5,8.759255E5,2.343819E6,7.811894E5,5.420534E6,1.4778512E6,1.0811388E6,3.050028E6,1.7534614E6,4.572288E6,1.1316969E7,4.224322E5,1.4449896E6,1.4683249E7,2.0500584E6],"categories":[],"categories_nodes":[],"categories_segments":[],"categories_sizes":[],"default_left":[0,0,0,0,0,0,0,0,0,0,0,0,0,0,0,0,0,0,0,0,0,0,0,0,0,0,0,0,0,0,0,0,0,0,0,0,0,0,0,0,0,0,0,0,0,0,0,0,0,0,0,0,0,0,0,0,0,0,0,0,0,0,0,0,0,0,0,0,0,0,0,0,0,0,0,0,0,0,0,0,0,0,0,0,0,0,0,0,0,0,0,0,0,0,0,0,0,0,0,0,0,0,0,0,0,0,0,0,0,0,0,0,0,0,0,0,0,0,0,0,0,0,0,0,0],"id":1,"left_children":[1,3,5,7,9,11,13,15,17,19,21,23,25,27,29,31,33,35,37,39,41,43,45,47,49,51,53,55,57,59,61,63,-1,65,67,69,71,73,75,77,79,81,83,85,87,89,91,93,95,97,99,101,103,105,107,109,111,113,115,117,119,121,123,-1,-1,-1,-1,-1,-1,-1,-1,-1,-1,-1,-1,-1,-1,-1,-1,-1,-1,-1,-1,-1,-1,-1,-1,-1,-1,-1,-1,-1,-1,-1,-1,-1,-1,-1,-1,-1,-1,-1,-1,-1,-1,-1,-1,-1,-1,-1,-1,-1,-1,-1,-1,-1,-1,-1,-1,-1,-1,-1,-1,-1,-1],"loss_changes":[7.859392E16,1.5735381E16,2.4813598E16,4.0577058E15,3.555653E15,3.423293E15,1.1974012E16,8.365082E14,6.582024E14,6.279366E14,3.768168E14,3.5362345E14,1.8109837E15,1.4259506E15,5.6973085E15,5.4567023E13,3.207777E14,1.4448E14,2.8248577E14,3.057649E14,2.004472E14,1.8597423E14,2.7943863E14,8.597384E13,2.1487829E14,2.1552253E14,4.897358E14,2.908756E14,6.095224E14,6.6087005E15,1.8269623E15,5.080141E13,0E0,1.1248949E14,1.6285684E14,2.4838199E13,1.3555124E14,1.9497336E14,4.7222327E13,1.3279918E14,1.8174181E14,1.0963011E14,4.383776E13,9.496079E13,7.0224057E13,1.5994512E14,3.5513004E13,5.360421E13,4.0483766E13,4.1067618E14,9.435968E13,1.9906368E14,4.8397302E13,1.0793618E15,3.5176587E13,1.6189852E14,4.531153E14,1.1875316E14,4.5875405E14,2.0974322E15,2.1624924E15,5.670714E14,4.8298937E15,0E0,0E0,0E0,0E0,0E0,0E0,0E0,0E0,0E0,0E0,0E0,0E0,0E0,0E0,0E0,0E0,0E0,0E0,0E0,0E0,0E0,0E0,0E0,0E0,0E0,0E0,0E0,0E0,0E0,0E0,0E0,0E0,0E0,0E0,0E0,0E0,0E0,0E0,0E0,0E0,0E0,0E0,0E0,0E0,0E0,0E0,0E0,0E0,0E0,0E0,0E0,0E0,0E0,0E0,0E0,0E0,0E0,0E0,0E0,0E0,0E0,0E0],"parents":[2147483647,0,0,1,1,2,2,3,3,4,4,5,5,6,6,7,7,8,8,9,9,10,10,11,11,12,12,13,13,14,14,15,15,16,16,17,17,18,18,19,19,20,20,21,21,22,22,23,23,24,24,25,25,26,26,27,27,28,28,29,29,30,30,31,31,33,33,34,34,35,35,36,36,37,37,38,38,39,39,40,40,41,41,42,42,43,43,44,44,45,45,46,46,47,47,48,48,49,49,50,50,51,51,52,52,53,53,54,54,55,55,56,56,57,57,58,58,59,59,60,60,61,61,62,62],"right_children":[2,4,6,8,10,12,14,16,18,20,22,24,26,28,30,32,34,36,38,40,42,44,46,48,50,52,54,56,58,60,62,64,-1,66,68,70,72,74,76,78,80,82,84,86,88,90,92,94,96,98,100,102,104,106,108,110,112,114,116,118,120,122,124,-1,-1,-1,-1,-1,-1,-1,-1,-1,-1,-1,-1,-1,-1,-1,-1,-1,-1,-1,-1,-1,-1,-1,-1,-1,-1,-1,-1,-1,-1,-1,-1,-1,-1,-1,-1,-1,-1,-1,-1,-1,-1,-1,-1,-1,-1,-1,-1,-1,-1,-1,-1,-1,-1,-1,-1,-1,-1,-1,-1,-1,-1],"split_conditions":[6E0,2.964E3,8.143E3,3E0,5E0,5E3,1E1,2E0,2.28E3,4.114E3,4.783E3,3.42E3,7E0,8E0,1.2E1,2.1E1,1.569E3,1.768E3,5E0,4E0,4.8E1,1.9E-1,4.8E1,4.9E1,8E0,6E0,1.1E1,7E0,6E-2,1.3E1,4.37E0,4.8E1,1.501563E6,2.55E0,1.618E1,1.72E0,1.9E-1,1.618E1,3.7E-1,3E0,1.5E-1,4E0,5E3,6E0,5E0,5E0,5E0,3.38E0,1E2,1.2E1,1.3E1,6.754E3,1.2E1,1.3E1,9E0,6E0,4.8E1,6E0,1.3E0,2E0,2.1E1,2.2E1,4.94E0,-6.660068E4,2.3068316E4,-4.718086E4,-1.3872189E4,-2.903927E4,5.4788504E4,-2.4090736E4,4.0621453E3,9.205785E3,-1.4549241E4,1.7712879E4,1.5367881E5,1.6314775E5,5.3658418E4,-1.0422375E4,4.3576418E4,1.335604E5,6.769872E4,7.7016086E4,1.3506955E5,2.6833794E5,5.2890594E5,2.661884E5,1.3678092E5,1.8417005E5,1.3671144E5,3.2075297E5,2.2154739E5,9.567592E5,5.771653E5,1.2717537E5,3.9849472E5,1.8219131E6,-1.6394056E5,3.613959E5,3.8791922E6,1.6320822E5,9.2549544E5,4.717164E5,6.696033E5,3.7430622E5,7.439376E4,7.704715E5,3.6293268E6,2.2195567E5,4.4747116E5,7.397702E5,3.3441728E5,8.759255E5,2.343819E6,7.811894E5,5.420534E6,1.4778512E6,1.0811388E6,3.050028E6,1.7534614E6,4.572288E6,1.1316969E7,4.224322E5,1.4449896E6,1.4683249E7,2.0500584E6],"split_indices":[1,3,3,1,1,3,1,1,3,3,3,3,1,1,0,0,3,3,1,1,2,2,2,0,0,0,0,1,2,1,2,2,0,2,2,2,2,2,2,1,2,1,3,0,0,0,0,2,0,1,1,3,0,1,1,0,2,0,2,2,1,1,2,0,0,0,0,0,0,0,0,0,0,0,0,0,0,0,0,0,0,0,0,0,0,0,0,0,0,0,0,0,0,0,0,0,0,0,0,0,0,0,0,0,0,0,0,0,0,0,0,0,0,0,0,0,0,0,0,0,0,0,0,0,0],"split_type":[0,0,0,0,0,0,0,0,0,0,0,0,0,0,0,0,0,0,0,0,0,0,0,0,0,0,0,0,0,0,0,0,0,0,0,0,0,0,0,0,0,0,0,0,0,0,0,0,0,0,0,0,0,0,0,0,0,0,0,0,0,0,0,0,0,0,0,0,0,0,0,0,0,0,0,0,0,0,0,0,0,0,0,0,0,0,0,0,0,0,0,0,0,0,0,0,0,0,0,0,0,0,0,0,0,0,0,0,0,0,0,0,0,0,0,0,0,0,0,0,0,0,0,0,0],"sum_hessian":[8.67927E5,8.51476E5,1.6451E4,7.41799E5,1.09677E5,1.3556E4,2.895E3,4.95427E5,2.46372E5,8.8446E4,2.1231E4,5.444E3,8.112E3,2.067E3,8.28E2,1.16112E5,3.79315E5,1.39959E5,1.06413E5,7.362E4,1.4826E4,1.455E4,6.681E3,1.173E3,4.271E3,4.209E3,3.903E3,9.74E2,1.093E3,5.83E2,2.45E2,1.16111E5,1E0,1.94485E5,1.8483E5,5.3485E4,8.6474E4,1.04518E5,1.895E3,3.777E4,3.585E4,1.4586E4,2.4E2,3.213E3,1.1337E4,6.577E3,1.04E2,1.169E3,4E0,3.59E3,6.81E2,2.933E3,1.276E3,3.611E3,2.92E2,3.84E2,5.9E2,4E0,1.089E3,4.61E2,1.22E2,2.06E2,3.9E1,1.1554E5,5.71E2,1.84885E5,9.6E3,1.82721E5,2.109E3,5.0498E4,2.987E3,4.32E4,4.3274E4,1.03561E5,9.57E2,1.421E3,4.74E2,4.678E3,3.3092E4,4.283E3,3.1567E4,4.063E3,1.0523E4,1.25E2,1.15E2,2.572E3,6.41E2,5.223E3,6.114E3,2.214E3,4.363E3,4.5E1,5.9E1,1.1E3,6.9E1,3E0,1E0,3.588E3,2E0,6.67E2,1.4E1,2.356E3,5.77E2,1.225E3,5.1E1,3.6E3,1.1E1,9.6E1,1.96E2,2.39E2,1.45E2,5.71E2,1.9E1,1E0,3E0,5.39E2,5.5E2,2.25E2,2.36E2,1.18E2,4E0,1.26E2,8E1,2E0,3.7E1],"tree_param":{"num_deleted":"0","num_feature":"4","num_nodes":"125","size_leaf_vector":"1"}},{"base_weights":[1.4066896E2,-2.9215994E4,1.5195014E6,-6.213982E4,2.5086827E5,1.1190562E6,3.3935745E6,-1.02093336E5,1.2831472E4,1.8280475E5,4.8232275E5,8.661218E5,1.6265845E6,2.6534608E6,6.395971E6,-1.5432766E5,-8.615761E4,-1.8264975E4,6.793146E4,1.7282333E5,5.7554144E5,4.4966212E5,8.410936E5,5.880294E5,1.0516646E6,1.4062911E6,2.2438558E6,2.1093252E6,3.7777605E6,9.0158E6,3.172552E6,-1.5440222E5,1.2763286E6,-9.79522E4,-4.1164047E4,-5.0399707E4,3.7829364E2,6.0570473E4,3.4258644E5,1.09080625E5,2.1931367E5,4.413051E5,8.629089E5,6.4730275E5,4.1368875E5,8.0262125E5,2.0670319E6,7.636646E5,3.8206838E5,1.3138251E6,7.8463194E5,1.585512E6,9.73951E5,2.1814505E6,8.700201E6,2.2110262E6,-2.7789397E5,5.2332535E6,3.7002492E6,1.2300432E7,6.0685305E6,1.92655E6,8.1920785E6,-4.1517062E4,-5.139083E4,-2.338009E4,-3.6175203E4,-1.3036567E4,1.1432645E5,-2.5125834E4,-1.1282826E4,1.0292393E4,-8.792187E3,1.705139E4,1.28727445E5,1.24030695E5,2.6716795E4,-1.2241359E4,3.9252465E4,5.9985277E4,1.4722873E5,9.317219E4,1.7205805E5,6.8507875E5,2.4217497E5,1.540875E5,2.7524934E5,9.7912625E4,1.4581536E5,2.2585222E5,3.9277512E5,5.1672106E5,1.0451759E6,-1.0064753E4,2.5590566E5,8.436325E4,5.7892494E5,4.359745E5,1.630141E5,2.2609531E5,4.3568995E6,1.6122085E6,4.6814872E5,2.7831606E5,5.8696544E5,7.373975E5,2.9132888E5,4.974439E6,5.483527E5,7.8202344E5,4.6271922E5,-1.4753278E5,7.1611344E5,1.0583542E6,2.4635008E6,3.1064425E6,7.4895625E6,1.6081621E6,1.2966356E7,2.052088E5,1.0644098E6,6.9992785E6,7.197081E5],"categories":[],"categories_nodes":[],"categories_segments":[],"categories_sizes":[],"default_left":[0,0,0,0,0,0,0,0,0,0,0,0,0,0,0,0,0,0,0,0,0,0,0,0,0,0,0,0,0,0,0,0,0,0,0,0,0,0,0,0,0,0,0,0,0,0,0,0,0,0,0,0,0,0,0,0,0,0,0,0,0,0,0,0,0,0,0,0,0,0,0,0,0,0,0,0,0,0,0,0,0,0,0,0,0,0,0,0,0,0,0,0,0,0,0,0,0,0,0,0,0,0,0,0,0,0,0,0,0,0,0,0,0,0,0,0,0,0,0,0,0,0,0],"id":2,"left_children":[1,3,5,7,9,11,13,15,17,19,21,23,25,27,29,31,33,35,37,39,41,43,45,47,49,51,53,55,57,59,61,63,-1,65,67,69,71,73,75,77,79,81,83,85,87,89,91,93,95,97,99,101,103,105,107,109,111,-1,113,115,117,119,121,-1,-1,-1,-1,-1,-1,-1,-1,-1,-1,-1,-1,-1,-1,-1,-1,-1,-1,-1,-1,-1,-1,-1,-1,-1,-1,-1,-1,-1,-1,-1,-1,-1,-1,-1,-1,-1,-1,-1,-1,-1,-1,-1,-1,-1,-1,-1,-1,-1,-1,-1,-1,-1,-1,-1,-1,-1,-1,-1,-1],"loss_changes":[3.871255E16,7.851865E15,1.234283E16,2.282216E15,1.4108517E15,1.7389227E15,6.4182746E15,4.1371487E14,4.538503E14,2.7121672E14,2.381001E14,4.663438E14,6.098456E14,1.4143982E15,4.801827E15,3.88512E13,2.021056E14,1.01440215E14,1.9317394E14,2.0000106E14,6.5775545E13,1.3237277E14,7.8379395E13,1.3080283E14,3.788886E14,2.5609118E14,4.5806524E14,3.815402E14,7.373428E14,2.974776E15,1.5978374E15,3.1417954E13,0E0,1.3669941E14,7.65441E13,2.651701E13,1.0793091E14,1.2798855E14,4.476148E13,9.286085E13,2.0504322E14,2.0063185E13,4.125192E13,1.0322659E14,9.95807E13,4.055214E13,1.8902554E13,1.3929183E14,2.6013662E14,2.9321312E14,1.1344186E15,2.1424048E14,4.2566414E13,3.9056554E14,5.654832E14,3.9418566E14,3.822274E13,0E0,5.5747387E14,3.3883426E15,4.1873397E15,4.16636E14,4.4167355E15,0E0,0E0,0E0,0E0,0E0,0E0,0E0,0E0,0E0,0E0,0E0,0E0,0E0,0E0,0E0,0E0,0E0,0E0,0E0,0E0,0E0,0E0,0E0,0E0,0E0,0E0,0E0,0E0,0E0,0E0,0E0,0E0,0E0,0E0,0E0,0E0,0E0,0E0,0E0,0E0,0E0,0E0,0E0,0E0,0E0,0E0,0E0,0E0,0E0,0E0,0E0,0E0,0E0,0E0,0E0,0E0,0E0,0E0,0E0,0E0],"parents":[2147483647,0,0,1,1,2,2,3,3,4,4,5,5,6,6,7,7,8,8,9,9,10,10,11,11,12,12,13,13,14,14,15,15,16,16,17,17,18,18,19,19,20,20,21,21,22,22,23,23,24,24,25,25,26,26,27,27,28,28,29,29,30,30,31,31,33,33,34,34,35,35,36,36,37,37,38,38,39,39,40,40,41,41,42,42,43,43,44,44,45,45,46,46,47,47,48,48,49,49,50,50,51,51,52,52,53,53,54,54,55,55,56,56,58,58,59,59,60,60,61,61,62,62],"right_children":[2,4,6,8,10,12,14,16,18,20,22,24,26,28,30,32,34,36,38,40,42,44,46,48,50,52,54,56,58,60,62,64,-1,66,68,70,72,74,76,78,80,82,84,86,88,90,92,94,96,98,100,102,104,106,108,110,112,-1,114,116,118,120,122,-1,-1,-1,-1,-1,-1,-1,-1,-1,-1,-1,-1,-1,-1,-1,-1,-1,-1,-1,-1,-1,-1,-1,-1,-1,-1,-1,-1,-1,-1,-1,-1,-1,-1,-1,-1,-1,-1,-1,-1,-1,-1,-1,-1,-1,-1,-1,-1,-1,-1,-1,-1,-1,-1,-1,-1,-1,-1,-1,-1],"split_conditions":[6E0,3.128E3,8.143E3,3E0,5E0,6.028E3,1.1E1,2E0,2.438E3,1.618E1,6.028E3,4.46E3,8E0,9E0,1.1E1,2.1E1,1.922E3,1.827E3,5E0,4E0,4.8E1,1.8E-1,4.8E1,6E0,5E-1,1.72E0,4.8E1,9E0,6E-2,2.05E0,4.37E0,3E0,1.2763286E6,2E-1,4.8E1,1.442E3,1.9E-1,1.618E1,4.8E-1,3E0,5E3,3.8E3,3E0,4.114E3,4.214E3,8.143E3,7E0,2.726E3,3.38E0,8E0,1.4E1,6E-2,4.8E1,1E1,6.754E3,2.21E0,2.46E1,5.2332535E6,4.8E1,1.72E0,2E1,2.1E1,8E0,-4.1517062E4,-5.139083E4,-2.338009E4,-3.6175203E4,-1.3036567E4,1.1432645E5,-2.5125834E4,-1.1282826E4,1.0292393E4,-8.792187E3,1.705139E4,1.28727445E5,1.24030695E5,2.6716795E4,-1.2241359E4,3.9252465E4,5.9985277E4,1.4722873E5,9.317219E4,1.7205805E5,6.8507875E5,2.4217497E5,1.540875E5,2.7524934E5,9.7912625E4,1.4581536E5,2.2585222E5,3.9277512E5,5.1672106E5,1.0451759E6,-1.0064753E4,2.5590566E5,8.436325E4,5.7892494E5,4.359745E5,1.630141E5,2.2609531E5,4.3568995E6,1.6122085E6,4.6814872E5,2.7831606E5,5.8696544E5,7.373975E5,2.9132888E5,4.974439E6,5.483527E5,7.8202344E5,4.6271922E5,-1.4753278E5,7.1611344E5,1.0583542E6,2.4635008E6,3.1064425E6,7.4895625E6,1.6081621E6,1.2966356E7,2.052088E5,1.0644098E6,6.9992785E6,7.197081E5],"split_indices":[1,3,3,1,1,3,1,1,3,2,3,3,1,1,0,0,3,3,1,1,2,2,2,0,2,2,2,0,2,2,2,0,0,2,2,3,2,2,2,1,3,3,0,3,3,3,0,3,2,0,1,2,2,0,3,2,2,0,2,2,1,1,2,0,0,0,0,0,0,0,0,0,0,0,0,0,0,0,0,0,0,0,0,0,0,0,0,0,0,0,0,0,0,0,0,0,0,0,0,0,0,0,0,0,0,0,0,0,0,0,0,0,0,0,0,0,0,0,0,0,0,0,0],"split_type":[0,0,0,0,0,0,0,0,0,0,0,0,0,0,0,0,0,0,0,0,0,0,0,0,0,0,0,0,0,0,0,0,0,0,0,0,0,0,0,0,0,0,0,0,0,0,0,0,0,0,0,0,0,0,0,0,0,0,0,0,0,0,0,0,0,0,0,0,0,0,0,0,0,0,0,0,0,0,0,0,0,0,0,0,0,0,0,0,0,0,0,0,0,0,0,0,0,0,0,0,0,0,0,0,0,0,0,0,0,0,0,0,0,0,0,0,0,0,0,0,0,0,0],"sum_hessian":[8.67927E5,8.51476E5,1.6451E4,7.61914E5,8.9562E4,1.3556E4,2.895E3,4.97035E5,2.64879E5,6.9211E4,2.0351E4,9.049E3,4.507E3,2.324E3,5.71E2,1.16187E5,3.80848E5,1.69321E5,9.5558E4,6.7497E4,1.714E3,1.8655E4,1.696E3,3.623E3,5.426E3,3.324E3,1.183E3,1.568E3,7.56E2,3.14E2,2.57E2,1.16186E5,1E0,3.01747E5,7.9101E4,6.2166E4,1.07155E5,9.3065E4,2.493E3,2.8468E4,3.9029E4,1.17E3,5.44E2,2.87E3,1.5785E4,1.646E3,5E1,1.954E3,1.669E3,2.736E3,2.69E3,2.348E3,9.76E2,1.173E3,1E1,1.504E3,6.4E1,3E0,7.53E2,1.47E2,1.67E2,2.07E2,5E1,5.9666E4,5.652E4,1.6012E5,1.41627E5,7.8675E4,4.26E2,1.723E4,4.4936E4,5.0003E4,5.7152E4,9.2133E4,9.32E2,1.948E3,5.45E2,3.609E3,2.4859E4,3.6432E4,2.597E3,5.9E2,5.8E2,1.9E1,5.25E2,1.922E3,9.48E2,7.156E3,8.629E3,1.501E3,1.45E2,4.2E1,8E0,1.97E2,1.757E3,1.568E3,1.01E2,2.316E3,4.2E2,2.685E3,5E0,1.4E1,2.334E3,9.34E2,4.2E1,9.54E2,2.19E2,4E0,6E0,9.43E2,5.61E2,6E1,4E0,7.27E2,2.6E1,1.29E2,1.8E1,1.65E2,2E0,1.18E2,8.9E1,1.3E1,3.7E1],"tree_param":{"num_deleted":"0","num_feature":"4","num_nodes":"123","size_leaf_vector":"1"}},{"base_weights":[1.7460999E2,-1.4407E4,1.5961558E6,-3.923947E4,2.638962E5,1.1065012E6,2.6377905E6,-6.726986E4,2.6831953E4,1.6409798E5,4.342074E5,6.1286894E5,1.2888011E6,2.0767768E6,4.5368985E6,-9.798674E4,-4.7530543E4,7.025397E3,9.9824625E4,2.1626986E5,8.624944E4,3.524027E5,6.285514E5,8.350751E5,3.8950606E5,1.6367152E6,1.03632075E6,1.3546173E7,2.0401584E6,5.9494375E6,1.4773409E6,-1.0310102E5,-2.1017402E4,-2.5601107E4,-6.809286E4,5.4109463E3,3.9482122E5,8.436173E4,2.1747245E5,1.9767897E5,4.3441347E5,7.562129E5,8.189514E4,3.438067E5,1.2522001E6,7.357166E5,3.777168E5,-2.1919377E5,9.3779506E5,2.967137E5,2.3179065E6,1.9131741E6,5.0355928E5,9.162182E5,1.8139538E6,5.4670744E5,4.6579395E6,1.9397404E6,5.3163985E6,5.3175565E6,3.553605E7,9.574236E5,4.7041245E6,-2.500247E4,-3.617962E4,3.920699E4,-1.7263838E4,-3.2365143E4,-6.1352236E3,7.365254E3,-2.2885273E4,2.2599379E4,-6.0774023E2,7.363918E4,1.5980369E5,2.4141445E4,1.6994419E5,8.733237E4,3.2435527E4,5.6334062E4,1.3170734E5,-2.429668E4,1.5587764E5,7.320897E4,3.142652E5,3.3877883E4,-2.293058E3,1.1351379E5,5.0305316E4,4.8202297E5,2.674456E5,1.990645E5,3.4194728E5,1.410976E5,5.6244316E4,-1.2033391E5,8.343047E4,2.683403E5,3.0341652E6,8.467371E4,1.0547428E6,2.0868519E5,3.379081E6,1.4210166E6,5.345362E5,4.3602645E4,2.5370956E5,2.638154E5,9.784329E5,1.8425965E6,4.7940438E5,7.0638475E5,3.9177872E5,1.2428502E6,2.2886892E6,1.3671178E5,1.8490924E6,5.0144078E5,2.0694828E7,4.197446E5,-2.2745262E5,1.7847025E6,-4.3956344E5],"categories":[],"categories_nodes":[],"categories_segments":[],"categories_sizes":[],"default_left":[0,0,0,0,0,0,0,0,0,0,0,0,0,0,0,0,0,0,0,0,0,0,0,0,0,0,0,0,0,0,0,0,0,0,0,0,0,0,0,0,0,0,0,0,0,0,0,0,0,0,0,0,0,0,0,0,0,0,0,0,0,0,0,0,0,0,0,0,0,0,0,0,0,0,0,0,0,0,0,0,0,0,0,0,0,0,0,0,0,0,0,0,0,0,0,0,0,0,0,0,0,0,0,0,0,0,0,0,0,0,0,0,0,0,0,0,0,0,0,0,0,0,0],"id":3,"left_children":[1,3,5,7,9,11,13,15,17,19,21,23,25,27,29,31,33,35,37,39,41,43,45,47,49,51,53,55,57,59,61,63,65,67,69,71,73,75,77,79,81,83,85,87,89,91,93,95,97,99,101,103,105,107,109,-1,-1,111,113,115,117,119,121,-1,-1,-1,-1,-1,-1,-1,-1,-1,-1,-1,-1,-1,-1,-1,-1,-1,-1,-1,-1,-1,-1,-1,-1,-1,-1,-1,-1,-1,-1,-1,-1,-1,-1,-1,-1,-1,-1,-1,-1,-1,-1,-1,-1,-1,-1,-1,-1,-1,-1,-1,-1,-1,-1,-1,-1,-1,-1,-1,-1],"loss_changes":[2.0198422E16,5.943923E15,4.0049861E15,1.4623766E15,1.1974525E15,4.8038135E14,2.6669277E15,3.361518E14,3.400445E14,1.8041775E14,4.1362575E14,7.1344205E13,3.412373E14,7.875644E14,2.4632475E15,8.537657E13,1.5219183E14,1.1582592E14,9.1306106E13,1.0778596E14,5.1946287E13,1.4128375E14,2.0697233E14,7.8502406E13,1.2850751E14,5.1280138E14,2.0987921E14,1.11004705E14,6.266196E14,7.120867E15,3.0083038E14,7.030781E13,7.490328E13,6.9215143E13,1.32189765E14,9.58012E13,1.5661825E13,8.317476E13,4.6921645E13,5.8477255E13,9.170792E13,1.6904459E13,4.921895E13,1.1045206E14,2.069238E13,1.5675718E14,4.0608144E13,5.991943E12,2.5295572E14,3.1143701E13,4.710775E14,4.8050806E14,3.9463997E13,1.6678821E14,2.7243186E14,0E0,0E0,4.9127608E14,1.2308933E14,1.5767899E15,8.945968E15,1.2079683E14,2.0071919E14,0E0,0E0,0E0,0E0,0E0,0E0,0E0,0E0,0E0,0E0,0E0,0E0,0E0,0E0,0E0,0E0,0E0,0E0,0E0,0E0,0E0,0E0,0E0,0E0,0E0,0E0,0E0,0E0,0E0,0E0,0E0,0E0,0E0,0E0,0E0,0E0,0E0,0E0,0E0,0E0,0E0,0E0,0E0,0E0,0E0,0E0,0E0,0E0,0E0,0E0,0E0,0E0,0E0,0E0,0E0,0E0,0E0,0E0,0E0,0E0],"parents":[2147483647,0,0,1,1,2,2,3,3,4,4,5,5,6,6,7,7,8,8,9,9,10,10,11,11,12,12,13,13,14,14,15,15,16,16,17,17,18,18,19,19,20,20,21,21,22,22,23,23,24,24,25,25,26,26,27,27,28,28,29,29,30,30,31,31,32,32,33,33,34,34,35,35,36,36,37,37,38,38,39,39,40,40,41,41,42,42,43,43,44,44,45,45,46,46,47,47,48,48,49,49,50,50,51,51,52,52,53,53,54,54,57,57,58,58,59,59,60,60,61,61,62,62],"right_children":[2,4,6,8,10,12,14,16,18,20,22,24,26,28,30,32,34,36,38,40,42,44,46,48,50,52,54,56,58,60,62,64,66,68,70,72,74,76,78,80,82,84,86,88,90,92,94,96,98,100,102,104,106,108,110,-1,-1,112,114,116,118,120,122,-1,-1,-1,-1,-1,-1,-1,-1,-1,-1,-1,-1,-1,-1,-1,-1,-1,-1,-1,-1,-1,-1,-1,-1,-1,-1,-1,-1,-1,-1,-1,-1,-1,-1,-1,-1,-1,-1,-1,-1,-1,-1,-1,-1,-1,-1,-1,-1,-1,-1,-1,-1,-1,-1,-1,-1,-1,-1,-1,-1],"split_conditions":[7E0,3.42E3,8.143E3,2.1E3,5E0,5E3,1.1E1,1.348E3,4E0,5E0,6E0,7E0,5E-1,6E-2,1.5E1,2.05E0,1.9E-1,4.8E1,5E0,5E3,6E-2,4.8E1,6E0,2.706E3,5.01E0,9E0,9E0,1E-2,4.8E1,2.1E1,4E1,1.6E-1,2.84E0,2E0,3E0,1.2E-1,3E0,1.618E1,2.7E-1,1.147E1,3E0,4E0,6E0,6E0,5E0,6.754E3,7E0,6E0,1.2E1,7.3E1,1.1E1,1E-1,1E1,4.8E1,5.234E3,5.4670744E5,4.6579395E6,2E0,8E0,5.7E-1,2.55E0,1.3E0,3.03E0,-2.500247E4,-3.617962E4,3.920699E4,-1.7263838E4,-3.2365143E4,-6.1352236E3,7.365254E3,-2.2885273E4,2.2599379E4,-6.0774023E2,7.363918E4,1.5980369E5,2.4141445E4,1.6994419E5,8.733237E4,3.2435527E4,5.6334062E4,1.3170734E5,-2.429668E4,1.5587764E5,7.320897E4,3.142652E5,3.3877883E4,-2.293058E3,1.1351379E5,5.0305316E4,4.8202297E5,2.674456E5,1.990645E5,3.4194728E5,1.410976E5,5.6244316E4,-1.2033391E5,8.343047E4,2.683403E5,3.0341652E6,8.467371E4,1.0547428E6,2.0868519E5,3.379081E6,1.4210166E6,5.345362E5,4.3602645E4,2.5370956E5,2.638154E5,9.784329E5,1.8425965E6,4.7940438E5,7.0638475E5,3.9177872E5,1.2428502E6,2.2886892E6,1.3671178E5,1.8490924E6,5.0144078E5,2.0694828E7,4.197446E5,-2.2745262E5,1.7847025E6,-4.3956344E5],"split_indices":[1,3,3,3,1,3,1,3,1,0,1,0,2,2,0,2,2,2,1,3,2,2,0,3,2,0,1,2,2,1,1,2,2,1,0,2,1,2,2,2,1,1,0,0,0,3,0,0,1,0,1,2,1,2,3,0,0,2,0,2,2,2,2,0,0,0,0,0,0,0,0,0,0,0,0,0,0,0,0,0,0,0,0,0,0,0,0,0,0,0,0,0,0,0,0,0,0,0,0,0,0,0,0,0,0,0,0,0,0,0,0,0,0,0,0,0,0,0,0,0,0,0,0],"split_type":[0,0,0,0,0,0,0,0,0,0,0,0,0,0,0,0,0,0,0,0,0,0,0,0,0,0,0,0,0,0,0,0,0,0,0,0,0,0,0,0,0,0,0,0,0,0,0,0,0,0,0,0,0,0,0,0,0,0,0,0,0,0,0,0,0,0,0,0,0,0,0,0,0,0,0,0,0,0,0,0,0,0,0,0,0,0,0,0,0,0,0,0,0,0,0,0,0,0,0,0,0,0,0,0,0,0,0,0,0,0,0,0,0,0,0,0,0,0,0,0,0,0,0],"sum_hessian":[8.67927E5,8.6007E5,7.857E3,7.89615E5,7.0455E4,5.346E3,2.511E3,5.5441E5,2.35205E5,4.4425E4,2.603E4,1.443E3,3.903E3,1.94E3,5.71E2,2.16893E5,3.37517E5,1.85005E5,5.02E4,2.6598E4,1.7827E4,1.8321E4,7.709E3,7.22E2,7.21E2,1.639E3,2.264E3,5E0,1.935E3,3.9E2,1.81E2,2.03379E5,1.3514E4,1.6333E5,1.74187E5,1.84239E5,7.66E2,4.437E4,5.83E3,2.4511E4,2.087E3,1.14E2,1.7713E4,1.8149E4,1.72E2,5.4E3,2.309E3,6.4E1,6.58E2,6.89E2,3.2E1,1.317E3,3.22E2,1.963E3,3.01E2,1E0,4E0,1.879E3,5.6E1,3.83E2,7E0,1.57E2,2.4E1,9.5519E4,1.0786E5,2.622E3,1.0892E4,9.62E3,1.5371E5,1.415E4,1.60037E5,1.7711E4,1.66528E5,3.69E2,3.97E2,4.4016E4,3.54E2,3.483E3,2.347E3,2.3547E4,9.64E2,2.96E2,1.791E3,4.2E1,7.2E1,1.3154E4,4.559E3,1.517E4,2.979E3,8.5E1,8.7E1,4.584E3,8.16E2,1.552E3,7.57E2,4.7E1,1.7E1,6.56E2,2E0,6.87E2,2E0,2.8E1,4E0,5.7E1,1.26E3,1.58E2,1.64E2,1.934E3,2.9E1,1.3E1,2.88E2,1.134E3,7.45E2,3.9E1,1.7E1,5.7E1,3.26E2,4E0,3E0,1.25E2,3.2E1,2E1,4E0],"tree_param":{"num_deleted":"0","num_feature":"4","num_nodes":"123","size_leaf_vector":"1"}},{"base_weights":[1.8125688E2,-1.00815625E4,1.1234636E6,-2.5735965E4,2.1032825E5,7.978048E5,1.9611652E6,-5.205601E4,1.752211E4,1.5516175E5,3.8070053E5,9.175523E5,1.9816434E4,4.9346384E5,2.3094355E6,-7.2459945E4,-4.007702E4,1.9361509E3,7.165192E4,1.17301055E5,2.324545E5,3.0535447E5,5.3408156E5,7.389762E5,1.3263432E6,1.1878995E6,-1.6812623E4,3.977221E6,2.739466E5,1.8998086E6,4.1065178E6,-7.667673E4,8.029713E1,-4.2354086E4,1.1550452E5,-1.0880582E4,3.1066373E4,1.1211721E5,4.6006285E4,2.5696033E5,9.753015E4,3.4862788E5,1.7458278E5,3.2348612E5,-1.6496611E5,9.153991E5,4.409302E5,8.863592E5,2.0110566E5,1.2814105E6,5.972001E6,-2.0592873E5,6.246867E6,-1.4330753E5,3.7619288E5,7.5662394E5,6.073844E6,5.2877175E5,-8.3394856E5,2.1503055E6,6.390375E4,7.2162425E6,8.562686E5,-1.8780475E4,-2.662628E4,2.1517102E5,-1.3735572E4,-8.650242E3,-1.8518105E4,2.0774059E4,7.499836E4,-3.9235376E3,3.7553004E4,9.0832125E4,8.416353E3,3.655094E3,4.7454523E4,5.1198887E4,6.5341777E3,-8.561702E3,9.3176875E4,2.035912E5,2.828234E4,1.2525579E5,2.7219436E4,4.9835566E4,3.2848722E5,8.164663E4,1.3429097E5,-5.7698434E4,9.137317E5,1.955804E5,4.9149234E5,6.802824E5,1.2835963E5,2.0111452E5,3.872836E5,1.5307777E4,6.91273E5,5.1900753E5,2.5814355E5,5.13814E6,-6.0829227E4,6.0337207E4,-5.3479725E5,3.0976348E6,2.5798838E4,2.511905E3,-3.1777706E5,1.2583849E6,7.270833E4,4.29984E4,5.3821794E5,-5.249791E5,2.2236338E6,-4.8131334E5,1.7217694E5,-7.511928E5,2.5740745E5,9.8514256E5,5.10743E5,1.0774554E5,-3.800128E5,1.8346559E6,7.7948555E6,1.0544769E5,9.196705E5],"categories":[],"categories_nodes":[],"categories_segments":[],"categories_sizes":[],"default_left":[0,0,0,0,0,0,0,0,0,0,0,0,0,0,0,0,0,0,0,0,0,0,0,0,0,0,0,0,0,0,0,0,0,0,0,0,0,0,0,0,0,0,0,0,0,0,0,0,0,0,0,0,0,0,0,0,0,0,0,0,0,0,0,0,0,0,0,0,0,0,0,0,0,0,0,0,0,0,0,0,0,0,0,0,0,0,0,0,0,0,0,0,0,0,0,0,0,0,0,0,0,0,0,0,0,0,0,0,0,0,0,0,0,0,0,0,0,0,0,0,0,0,0,0,0,0,0],"id":4,"left_children":[1,3,5,7,9,11,13,15,17,19,21,23,25,27,29,31,33,35,37,39,41,43,45,47,49,51,53,55,57,59,61,63,65,67,69,71,73,75,77,79,81,83,85,87,89,91,93,95,97,99,101,103,105,107,109,111,113,115,117,119,121,123,125,-1,-1,-1,-1,-1,-1,-1,-1,-1,-1,-1,-1,-1,-1,-1,-1,-1,-1,-1,-1,-1,-1,-1,-1,-1,-1,-1,-1,-1,-1,-1,-1,-1,-1,-1,-1,-1,-1,-1,-1,-1,-1,-1,-1,-1,-1,-1,-1,-1,-1,-1,-1,-1,-1,-1,-1,-1,-1,-1,-1,-1,-1,-1,-1],"loss_changes":[1.0005524E16,2.9675803E15,2.1421364E15,9.1430244E14,5.3600413E14,5.272797E14,1.12289504E15,1.2202646E14,2.5628335E14,1.2605789E14,1.6105215E14,3.57086E14,3.236602E13,3.2239753E14,1.3003067E15,5.6492644E13,1.1145101E14,8.806043E13,7.0472125E13,7.983408E13,9.517258E13,7.984693E13,1.6277658E14,2.7061837E14,3.033726E14,1.6346703E14,3.6543398E13,1.6421385E14,1.1308648E14,6.662407E14,3.3191497E15,2.966487E13,3.337957E14,8.120498E13,2.8214462E13,4.8982697E13,5.896729E13,1.21269844E14,1.2553329E14,5.4914512E13,4.787122E13,8.362617E13,7.3490615E13,5.729654E13,3.1158354E13,1.7053698E14,8.71873E13,2.3340423E14,2.3219224E14,2.774224E14,9.677972E14,1.2552958E13,1.2475013E14,7.725489E13,9.045711E13,6.741669E12,1.7002524E14,3.2223026E13,2.140716E14,6.4161926E14,6.9205597E13,3.3114504E15,1.7958523E14,0E0,0E0,0E0,0E0,0E0,0E0,0E0,0E0,0E0,0E0,0E0,0E0,0E0,0E0,0E0,0E0,0E0,0E0,0E0,0E0,0E0,0E0,0E0,0E0,0E0,0E0,0E0,0E0,0E0,0E0,0E0,0E0,0E0,0E0,0E0,0E0,0E0,0E0,0E0,0E0,0E0,0E0,0E0,0E0,0E0,0E0,0E0,0E0,0E0,0E0,0E0,0E0,0E0,0E0,0E0,0E0,0E0,0E0,0E0,0E0,0E0,0E0,0E0,0E0],"parents":[2147483647,0,0,1,1,2,2,3,3,4,4,5,5,6,6,7,7,8,8,9,9,10,10,11,11,12,12,13,13,14,14,15,15,16,16,17,17,18,18,19,19,20,20,21,21,22,22,23,23,24,24,25,25,26,26,27,27,28,28,29,29,30,30,31,31,32,32,33,33,34,34,35,35,36,36,37,37,38,38,39,39,40,40,41,41,42,42,43,43,44,44,45,45,46,46,47,47,48,48,49,49,50,50,51,51,52,52,53,53,54,54,55,55,56,56,57,57,58,58,59,59,60,60,61,61,62,62],"right_children":[2,4,6,8,10,12,14,16,18,20,22,24,26,28,30,32,34,36,38,40,42,44,46,48,50,52,54,56,58,60,62,64,66,68,70,72,74,76,78,80,82,84,86,88,90,92,94,96,98,100,102,104,106,108,110,112,114,116,118,120,122,124,126,-1,-1,-1,-1,-1,-1,-1,-1,-1,-1,-1,-1,-1,-1,-1,-1,-1,-1,-1,-1,-1,-1,-1,-1,-1,-1,-1,-1,-1,-1,-1,-1,-1,-1,-1,-1,-1,-1,-1,-1,-1,-1,-1,-1,-1,-1,-1,-1,-1,-1,-1,-1,-1,-1,-1,-1,-1,-1,-1,-1,-1,-1,-1,-1],"split_conditions":[7E0,3.61E3,9E0,3E0,5E3,8E0,2.7E-1,1.3E3,4E0,5E0,6E0,8E0,6E-2,7E-2,1.3E1,2.55E0,1.147E1,2.528E3,1.8E-1,4E0,2.6E-1,8E0,5E0,2.05E0,4.8E1,6.754E3,7.9E-1,5.574E3,8.143E3,1E1,1.5E1,1.6E-1,2.84E0,2.4E-1,4.8E1,8E0,3E0,6E-2,4E0,3E0,6E-2,6E0,4.8E1,6.028E3,2.2E1,6.754E3,7E-2,6.754E3,4.8E1,8.3E-1,6E0,5.574E3,9E0,4.6E-1,8.3E-1,3.225E3,2E-2,5E0,1.6E1,7.9E-1,8E0,2.1E1,4E1,-1.8780475E4,-2.662628E4,2.1517102E5,-1.3735572E4,-8.650242E3,-1.8518105E4,2.0774059E4,7.499836E4,-3.9235376E3,3.7553004E4,9.0832125E4,8.416353E3,3.655094E3,4.7454523E4,5.1198887E4,6.5341777E3,-8.561702E3,9.3176875E4,2.035912E5,2.828234E4,1.2525579E5,2.7219436E4,4.9835566E4,3.2848722E5,8.164663E4,1.3429097E5,-5.7698434E4,9.137317E5,1.955804E5,4.9149234E5,6.802824E5,1.2835963E5,2.0111452E5,3.872836E5,1.5307777E4,6.91273E5,5.1900753E5,2.5814355E5,5.13814E6,-6.0829227E4,6.0337207E4,-5.3479725E5,3.0976348E6,2.5798838E4,2.511905E3,-3.1777706E5,1.2583849E6,7.270833E4,4.29984E4,5.3821794E5,-5.249791E5,2.2236338E6,-4.8131334E5,1.7217694E5,-7.511928E5,2.5740745E5,9.8514256E5,5.10743E5,1.0774554E5,-3.800128E5,1.8346559E6,7.7948555E6,1.0544769E5,9.196705E5],"split_indices":[1,3,1,1,3,0,2,3,1,1,1,1,2,2,1,2,2,3,2,0,2,0,0,2,2,3,2,3,3,0,0,2,2,2,2,2,0,2,0,1,2,0,2,3,0,3,2,3,2,2,0,3,0,2,2,3,2,0,0,2,2,1,1,0,0,0,0,0,0,0,0,0,0,0,0,0,0,0,0,0,0,0,0,0,0,0,0,0,0,0,0,0,0,0,0,0,0,0,0,0,0,0,0,0,0,0,0,0,0,0,0,0,0,0,0,0,0,0,0,0,0,0,0,0,0,0,0],"split_type":[0,0,0,0,0,0,0,0,0,0,0,0,0,0,0,0,0,0,0,0,0,0,0,0,0,0,0,0,0,0,0,0,0,0,0,0,0,0,0,0,0,0,0,0,0,0,0,0,0,0,0,0,0,0,0,0,0,0,0,0,0,0,0,0,0,0,0,0,0,0,0,0,0,0,0,0,0,0,0,0,0,0,0,0,0,0,0,0,0,0,0,0,0,0,0,0,0,0,0,0,0,0,0,0,0,0,0,0,0,0,0,0,0,0,0,0,0,0,0,0,0,0,0,0,0,0,0],"sum_hessian":[8.67927E5,8.6007E5,7.857E3,8.03036E5,5.7034E4,5.659E3,2.198E3,4.99263E5,3.03773E5,4.3085E4,1.3949E4,4.904E3,7.55E2,4.22E2,1.776E3,1.84684E5,3.14579E5,2.35861E5,6.7912E4,2.8921E4,1.4164E4,9.356E3,4.593E3,3.415E3,1.489E3,2.2E1,7.33E2,2.4E1,3.98E2,1.448E3,3.28E2,1.74538E5,1.0146E4,3.10042E5,4.537E3,1.63795E5,7.2066E4,2.6343E4,4.1569E4,3.585E3,2.5336E4,4.708E3,9.456E3,9.009E3,3.47E2,9E2,3.693E3,2.68E3,7.35E2,1.476E3,1.3E1,1.8E1,4E0,5.55E2,1.78E2,1E1,1.4E1,3.24E2,7.4E1,1.274E3,1.74E2,1.67E2,1.61E2,8.0606E4,9.3932E4,6.09E2,9.537E3,1.82607E5,1.27435E5,3.377E3,1.16E3,1.61192E5,2.603E3,7.89E2,7.1277E4,8.312E3,1.8031E4,6.763E3,3.4806E4,5.67E2,3.018E3,1.4E2,2.5196E4,3.715E3,9.93E2,9.371E3,8.5E1,6.376E3,2.633E3,3.45E2,2E0,6.61E2,2.39E2,2.5E1,3.668E3,1.749E3,9.31E2,6.87E2,4.8E1,7.13E2,7.63E2,4E0,9E0,1.5E1,3E0,2E0,2E0,4.77E2,7.8E1,5E0,1.73E2,7E0,3E0,2E0,1.2E1,6E0,3.18E2,3.7E1,3.7E1,3.59E2,9.15E2,1.43E2,3.1E1,1.59E2,8E0,1.32E2,2.9E1],"tree_param":{"num_deleted":"0","num_feature":"4","num_nodes":"127","size_leaf_vector":"1"}},{"base_weights":[1.5919939E2,-6.582287E3,8.555264E5,-1.9829977E4,1.3298997E5,5.710043E5,1.7325449E6,-3.8365715E4,8.377865E3,1.01913086E5,3.3527178E5,3.7501372E5,7.8259194E5,9.7486194E5,2.1335122E6,-6.603461E4,-3.2659598E4,5.570202E3,1.2608219E5,4.629686E5,9.722613E4,3.933464E5,1.391831E5,6.300444E5,2.5918967E5,2.8254358E6,6.931781E5,3.9277118E6,4.425647E5,5.3248925E5,2.7957422E6,-6.637848E4,3.9292262E6,-3.5478668E4,2.7159781E4,3.7831164E4,-5.605898E3,1.8528883E5,4.943632E4,4.241353E5,3.071524E6,1.3500222E5,5.160662E4,4.7613122E5,5.8410625E4,8.966128E4,7.587888E6,-5.0493207E4,9.523033E5,1.7920018E6,2.4895205E5,3.6059472E6,-4.616636E4,8.2941806E5,7.207501E4,4.254285E6,-2.0229866E6,7.029634E4,4.214414E6,1.5310974E6,2.8341049E4,5.90054E6,2.405825E6,-1.9880883E4,-1.3349354E6,5.5241914E4,1.61713E6,-6.7510337E3,-1.5996998E4,9.8875044E5,-6.233718E2,3.684108E3,2.3260477E4,3.8290476E3,-4.9789272E3,4.746421E4,1.488252E5,1.9139904E3,3.5927992E4,2.2282637E4,1.6345588E5,-6.377126E4,1.634302E6,3.0878467E4,6.960422E4,1.863898E4,-4.840349E4,2.103327E5,1.1698135E5,2.19804E4,-5.0120412E5,1.35311875E4,4.055178E5,5.8440055E6,-7.513935E5,-7.1026305E4,1.1943473E5,5.5309125E5,1.9096964E5,-1.6865717E5,1.9922802E6,-1.9561283E4,8.9616984E4,-2.9997994E5,1.1766368E6,-8.1868234E4,3.297042E5,2.783201E5,1.0796551E5,-1.9913488E5,1.1924951E5,1.1576692E6,2.664891E6,3.6478544E5,-5.0301176E4,2.0888234E6,6.678314E5,1.0664533E5,9.247004E5,-8.281683E5,1.3440702E5,2.4415598E6,-3.8038875E4,5.5780156E5,1.1513186E6],"categories":[],"categories_nodes":[],"categories_segments":[],"categories_sizes":[],"default_left":[0,0,0,0,0,0,0,0,0,0,0,0,0,0,0,0,0,0,0,0,0,0,0,0,0,0,0,0,0,0,0,0,0,0,0,0,0,0,0,0,0,0,0,0,0,0,0,0,0,0,0,0,0,0,0,0,0,0,0,0,0,0,0,0,0,0,0,0,0,0,0,0,0,0,0,0,0,0,0,0,0,0,0,0,0,0,0,0,0,0,0,0,0,0,0,0,0,0,0,0,0,0,0,0,0,0,0,0,0,0,0,0,0,0,0,0,0,0,0,0,0,0,0,0,0],"id":5,"left_children":[1,3,5,7,9,11,13,15,17,19,21,23,25,27,29,31,33,35,37,39,41,43,45,47,49,51,53,55,57,59,61,63,65,67,69,71,73,75,77,79,81,83,85,87,89,91,93,95,97,99,101,103,105,107,109,111,-1,113,115,117,119,121,123,-1,-1,-1,-1,-1,-1,-1,-1,-1,-1,-1,-1,-1,-1,-1,-1,-1,-1,-1,-1,-1,-1,-1,-1,-1,-1,-1,-1,-1,-1,-1,-1,-1,-1,-1,-1,-1,-1,-1,-1,-1,-1,-1,-1,-1,-1,-1,-1,-1,-1,-1,-1,-1,-1,-1,-1,-1,-1,-1,-1,-1,-1],"loss_changes":[5.0048663E15,1.5922628E15,1.6925784E15,4.1122023E14,4.692437E14,2.1227768E14,5.0284564E14,7.493114E13,1.0306658E14,1.0946234E14,1.1315105E14,7.849821E13,4.4811206E14,9.051868E14,1.1499383E15,1.1173995E14,6.6354325E13,1.098286E14,3.296353E13,8.267396E13,1.1008431E14,2.1261524E14,8.377687E14,1.8229412E14,2.8317936E13,2.310222E14,1.9981047E14,3.3535574E14,6.877324E14,1.6055603E14,9.155566E14,3.8425093E13,3.731382E13,8.700282E13,1.6924294E15,7.950758E13,4.567523E13,3.4413434E13,9.591559E12,3.4507126E13,9.480001E13,1.08709515E14,6.486106E13,1.1896563E14,3.9196517E13,1.2697217E14,1.8491163E15,2.248791E13,1.5755175E14,1.4071731E14,2.8508173E13,1.2187943E14,6.2717297E12,8.908272E13,1.0227607E14,1.23112285E14,0E0,1.2206859E14,2.2493972E14,1.9403533E14,2.5054326E14,1.147608E15,5.2810515E14,0E0,0E0,0E0,0E0,0E0,0E0,0E0,0E0,0E0,0E0,0E0,0E0,0E0,0E0,0E0,0E0,0E0,0E0,0E0,0E0,0E0,0E0,0E0,0E0,0E0,0E0,0E0,0E0,0E0,0E0,0E0,0E0,0E0,0E0,0E0,0E0,0E0,0E0,0E0,0E0,0E0,0E0,0E0,0E0,0E0,0E0,0E0,0E0,0E0,0E0,0E0,0E0,0E0,0E0,0E0,0E0,0E0,0E0,0E0,0E0,0E0,0E0],"parents":[2147483647,0,0,1,1,2,2,3,3,4,4,5,5,6,6,7,7,8,8,9,9,10,10,11,11,12,12,13,13,14,14,15,15,16,16,17,17,18,18,19,19,20,20,21,21,22,22,23,23,24,24,25,25,26,26,27,27,28,28,29,29,30,30,31,31,32,32,33,33,34,34,35,35,36,36,37,37,38,38,39,39,40,40,41,41,42,42,43,43,44,44,45,45,46,46,47,47,48,48,49,49,50,50,51,51,52,52,53,53,54,54,55,55,57,57,58,58,59,59,60,60,61,61,62,62],"right_children":[2,4,6,8,10,12,14,16,18,20,22,24,26,28,30,32,34,36,38,40,42,44,46,48,50,52,54,56,58,60,62,64,66,68,70,72,74,76,78,80,82,84,86,88,90,92,94,96,98,100,102,104,106,108,110,112,-1,114,116,118,120,122,124,-1,-1,-1,-1,-1,-1,-1,-1,-1,-1,-1,-1,-1,-1,-1,-1,-1,-1,-1,-1,-1,-1,-1,-1,-1,-1,-1,-1,-1,-1,-1,-1,-1,-1,-1,-1,-1,-1,-1,-1,-1,-1,-1,-1,-1,-1,-1,-1,-1,-1,-1,-1,-1,-1,-1,-1,-1,-1,-1,-1,-1,-1],"split_conditions":[6.754E3,3.379E3,9E0,1.882E3,6E0,7E0,7E0,1.044E3,8E0,7E-2,1.18E0,5E0,2.4E-1,5E-1,5.5E-1,2E1,2.55E0,1.6E-1,4E0,5.574E3,5E0,7E0,1.2E1,4E0,6E-2,9E0,7E0,1.3E1,1.147E1,1E1,7.5E-1,1.5E1,7.08E2,2E-1,1.054E3,2.4E3,4E0,4E0,2.793E3,4E0,5E0,4.329E3,8E0,2.5E-1,1.7E1,4.8E1,5.234E3,1.88E0,7E-1,6E0,3E-1,5E0,1.8E1,3.9E0,6.8E-1,4.8E-1,-2.0229866E6,8.143E3,2.46E1,1E1,1.2E1,1.2E1,1.3E1,-1.9880883E4,-1.3349354E6,5.5241914E4,1.61713E6,-6.7510337E3,-1.5996998E4,9.8875044E5,-6.233718E2,3.684108E3,2.3260477E4,3.8290476E3,-4.9789272E3,4.746421E4,1.488252E5,1.9139904E3,3.5927992E4,2.2282637E4,1.6345588E5,-6.377126E4,1.634302E6,3.0878467E4,6.960422E4,1.863898E4,-4.840349E4,2.103327E5,1.1698135E5,2.19804E4,-5.0120412E5,1.35311875E4,4.055178E5,5.8440055E6,-7.513935E5,-7.1026305E4,1.1943473E5,5.5309125E5,1.9096964E5,-1.6865717E5,1.9922802E6,-1.9561283E4,8.9616984E4,-2.9997994E5,1.1766368E6,-8.1868234E4,3.297042E5,2.783201E5,1.0796551E5,-1.9913488E5,1.1924951E5,1.1576692E6,2.664891E6,3.6478544E5,-5.0301176E4,2.0888234E6,6.678314E5,1.0664533E5,9.247004E5,-8.281683E5,1.3440702E5,2.4415598E6,-3.8038875E4,5.5780156E5,1.1513186E6],"split_indices":[3,3,1,3,1,1,0,3,2,2,2,0,2,2,2,0,2,2,0,3,0,0,1,1,2,0,0,1,2,0,2,1,3,2,3,3,0,1,3,0,1,3,0,2,1,2,3,2,2,1,2,0,0,2,2,2,0,3,2,1,0,0,1,0,0,0,0,0,0,0,0,0,0,0,0,0,0,0,0,0,0,0,0,0,0,0,0,0,0,0,0,0,0,0,0,0,0,0,0,0,0,0,0,0,0,0,0,0,0,0,0,0,0,0,0,0,0,0,0,0,0,0,0,0,0],"split_type":[0,0,0,0,0,0,0,0,0,0,0,0,0,0,0,0,0,0,0,0,0,0,0,0,0,0,0,0,0,0,0,0,0,0,0,0,0,0,0,0,0,0,0,0,0,0,0,0,0,0,0,0,0,0,0,0,0,0,0,0,0,0,0,0,0,0,0,0,0,0,0,0,0,0,0,0,0,0,0,0,0,0,0,0,0,0,0,0,0,0,0,0,0,0,0,0,0,0,0,0,0,0,0,0,0,0,0,0,0,0,0,0,0,0,0,0,0,0,0,0,0,0,0,0,0],"sum_hessian":[8.67927E5,8.61141E5,6.786E3,7.86491E5,7.465E4,5.125E3,1.661E3,4.74615E5,3.11876E5,6.471E4,9.94E3,2.662E3,2.463E3,5.76E2,1.085E3,8.1143E4,3.93472E5,3.04611E5,7.265E3,8.28E2,6.3882E4,7.668E3,2.272E3,8.3E2,1.832E3,1.02E2,2.361E3,8.7E1,4.89E2,3.18E2,7.67E2,8.1137E4,6E0,3.75764E5,1.7708E4,7.8374E4,2.26237E5,4.098E3,3.167E3,8.17E2,1.1E1,3.4944E4,2.8938E4,6.148E3,1.52E3,2.258E3,1.4E1,2.67E2,5.63E2,1.1E1,1.821E3,8E1,2.2E1,1.936E3,4.25E2,8.5E1,2E0,4.46E2,4.3E1,1.06E2,2.12E2,8.4E1,6.83E2,8.1136E4,1E0,2E0,4E0,2.17568E5,1.58196E5,1.56E2,1.7552E4,4.7687E4,3.0687E4,8.4689E4,1.41548E5,3.771E3,3.27E2,1.965E3,1.202E3,2.1E2,6.07E2,5E0,6E0,2.6263E4,8.681E3,2.7576E4,1.362E3,1.701E3,4.447E3,1.508E3,1.2E1,2.182E3,7.6E1,6E0,8E0,1.89E2,7.8E1,1.46E2,4.17E2,8E0,3E0,2.49E2,1.572E3,5E0,7.5E1,1.9E1,3E0,1.6E3,3.36E2,1.3E2,2.95E2,8E1,5E0,7.6E1,3.7E2,1.7E1,2.6E1,6.1E1,4.5E1,2.7E1,1.85E2,6.1E1,2.3E1,4.96E2,1.87E2],"tree_param":{"num_deleted":"0","num_feature":"4","num_nodes":"125","size_leaf_vector":"1"}},{"base_weights":[1.369791E2,-3.6494795E3,7.890126E5,-1.1230683E4,1.7053142E5,4.4960906E5,1.1815121E6,-2.7662717E4,1.3945551E4,1.3661312E5,3.404283E5,-8.1572144E5,5.0829175E5,7.3740625E5,1.5817964E6,-4.7054605E4,-2.178629E4,1.2723199E4,3.7630297E5,1.6814819E5,1.496379E4,1.3233546E6,3.267421E5,-5.836102E5,-4.3161775E6,8.0221825E5,1.3980152E5,1.9737201E6,3.4442862E5,2.158419E6,2.0341147E5,-4.716514E4,9.550079E5,-2.4377584E4,2.1309219E4,-3.2918887E3,3.4221867E4,3.6522275E5,4.302539E6,2.0639556E5,1.1178486E4,3.5644916E5,1.6529268E3,9.905568E5,5.3737005E6,3.649095E5,1.2199679E4,3.4540797E5,-7.786063E5,-1.502719E6,-1.277624E5,3.0128675E6,7.440538E5,5.1444746E3,1.748237E6,-1.1384365E6,2.2233915E6,1.2334347E4,2.1074352E6,1.5756374E6,5.7936465E6,-1.16053E6,1.2594642E6,-1.3297234E3,-1.5623644E4,-1.56649E4,-6.0447305E3,8.694592E4,1.23897E3,2.0127301E3,-6.791561E3,2.6909596E4,6.5850015E3,9.8047125E4,2.234377E5,-1.4249217E5,2.0786349E6,5.733662E4,2.0321245E5,-2.8374575E3,1.927003E5,5.7404848E4,2.0985195E5,4.5510386E3,-3.975157E4,-3.1850262E5,3.7316503E5,2.731825E6,-4.1821288E5,7.975212E5,1.0696479E5,-1.770275E4,5.5359575E5,-9.8439336E4,7.8493275E5,-3.3608494E5,2.6146475E4,-2.0991481E5,1.5597255E6,2.1273427E5,1.0615461E6,2.0940941E4,-3.47647E5,3.752211E4,2.7690418E6,2.6231785E6,-9.1170406E5,2.4515632E6,6.098602E5,1.0600762E5,-4.020923E5,4.963732E5,1.0742909E6,6.162056E5,-2.3201324E4,1.4466904E6,1.0483647E7,-4.3912466E5,2.111712E5,1.060355E5,2.189163E6],"categories":[],"categories_nodes":[],"categories_segments":[],"categories_sizes":[],"default_left":[0,0,0,0,0,0,0,0,0,0,0,0,0,0,0,0,0,0,0,0,0,0,0,0,0,0,0,0,0,0,0,0,0,0,0,0,0,0,0,0,0,0,0,0,0,0,0,0,0,0,0,0,0,0,0,0,0,0,0,0,0,0,0,0,0,0,0,0,0,0,0,0,0,0,0,0,0,0,0,0,0,0,0,0,0,0,0,0,0,0,0,0,0,0,0,0,0,0,0,0,0,0,0,0,0,0,0,0,0,0,0,0,0,0,0,0,0,0,0,0,0],"id":6,"left_children":[1,3,5,7,9,11,13,15,17,19,21,23,25,27,29,31,33,35,37,39,41,43,45,47,49,51,53,55,57,59,61,63,-1,65,67,69,71,73,75,77,79,81,83,85,87,89,91,93,95,-1,-1,97,99,101,103,105,107,109,111,113,115,117,119,-1,-1,-1,-1,-1,-1,-1,-1,-1,-1,-1,-1,-1,-1,-1,-1,-1,-1,-1,-1,-1,-1,-1,-1,-1,-1,-1,-1,-1,-1,-1,-1,-1,-1,-1,-1,-1,-1,-1,-1,-1,-1,-1,-1,-1,-1,-1,-1,-1,-1,-1,-1,-1,-1,-1,-1,-1,-1],"loss_changes":[2.5925427E15,1.140628E15,5.5178143E14,3.4244033E14,2.0756906E14,1.6562756E14,3.4050474E14,5.7074176E13,1.4478848E14,1.1521444E14,8.0215695E13,7.7918055E13,2.3026118E14,4.428955E14,8.023168E14,4.1741495E13,4.2925346E13,1.1217473E14,4.6239064E13,1.4319146E14,2.8108567E13,1.0520863E14,7.0994736E13,1.7297501E13,1.4039971E13,1.4986966E14,2.0466586E14,1.7347474E14,4.0630015E14,1.4992748E15,4.3213958E14,2.4456752E13,0E0,4.2680046E13,1.0056767E14,3.612662E13,9.4690305E13,1.5745451E13,4.093173E13,1.3782758E14,6.0884735E13,1.3006321E13,1.0797436E13,4.1351735E13,1.6425312E14,1.0017642E14,8.378139E13,2.6862256E13,2.3170858E13,0E0,0E0,2.4713334E14,1.1016329E14,6.578339E13,8.8538295E14,3.4587023E14,2.1458697E14,2.7032467E14,6.7478198E13,4.8647162E14,2.6065002E15,7.508873E13,9.21897E14,0E0,0E0,0E0,0E0,0E0,0E0,0E0,0E0,0E0,0E0,0E0,0E0,0E0,0E0,0E0,0E0,0E0,0E0,0E0,0E0,0E0,0E0,0E0,0E0,0E0,0E0,0E0,0E0,0E0,0E0,0E0,0E0,0E0,0E0,0E0,0E0,0E0,0E0,0E0,0E0,0E0,0E0,0E0,0E0,0E0,0E0,0E0,0E0,0E0,0E0,0E0,0E0,0E0,0E0,0E0,0E0,0E0,0E0],"parents":[2147483647,0,0,1,1,2,2,3,3,4,4,5,5,6,6,7,7,8,8,9,9,10,10,11,11,12,12,13,13,14,14,15,15,16,16,17,17,18,18,19,19,20,20,21,21,22,22,23,23,24,24,25,25,26,26,27,27,28,28,29,29,30,30,31,31,33,33,34,34,35,35,36,36,37,37,38,38,39,39,40,40,41,41,42,42,43,43,44,44,45,45,46,46,47,47,48,48,51,51,52,52,53,53,54,54,55,55,56,56,57,57,58,58,59,59,60,60,61,61,62,62],"right_children":[2,4,6,8,10,12,14,16,18,20,22,24,26,28,30,32,34,36,38,40,42,44,46,48,50,52,54,56,58,60,62,64,-1,66,68,70,72,74,76,78,80,82,84,86,88,90,92,94,96,-1,-1,98,100,102,104,106,108,110,112,114,116,118,120,-1,-1,-1,-1,-1,-1,-1,-1,-1,-1,-1,-1,-1,-1,-1,-1,-1,-1,-1,-1,-1,-1,-1,-1,-1,-1,-1,-1,-1,-1,-1,-1,-1,-1,-1,-1,-1,-1,-1,-1,-1,-1,-1,-1,-1,-1,-1,-1,-1,-1,-1,-1,-1,-1,-1,-1,-1,-1],"split_conditions":[8E0,5E0,8.143E3,3E0,6.028E3,5E0,7E0,2E0,4.8E1,6E0,4E0,1.4E1,8E0,7.9E-1,1.1E1,2.1E1,2.55E0,2.545E3,8.143E3,1.12E0,7E-2,7E0,7E0,1.5E-1,1.63E2,1E-1,3.9E0,2.7E-1,8E0,1.3E1,1.6E1,2E0,9.550079E5,1.16E3,2.84E0,2.5E-1,4E0,5E3,5E0,7E0,4.8E1,3.947E3,9E0,2.5E-1,6.2E-1,7E-2,4.8E1,5E3,6.754E3,-1.502719E6,-1.277624E5,5.234E3,4.8E1,1.72E0,1.3E1,6E-2,2.8E-1,1E1,1E1,4.94E0,4.8E1,2.46E1,4.37E0,-1.3297234E3,-1.5623644E4,-1.56649E4,-6.0447305E3,8.694592E4,1.23897E3,2.0127301E3,-6.791561E3,2.6909596E4,6.5850015E3,9.8047125E4,2.234377E5,-1.4249217E5,2.0786349E6,5.733662E4,2.0321245E5,-2.8374575E3,1.927003E5,5.7404848E4,2.0985195E5,4.5510386E3,-3.975157E4,-3.1850262E5,3.7316503E5,2.731825E6,-4.1821288E5,7.975212E5,1.0696479E5,-1.770275E4,5.5359575E5,-9.8439336E4,7.8493275E5,-3.3608494E5,2.6146475E4,-2.0991481E5,1.5597255E6,2.1273427E5,1.0615461E6,2.0940941E4,-3.47647E5,3.752211E4,2.7690418E6,2.6231785E6,-9.1170406E5,2.4515632E6,6.098602E5,1.0600762E5,-4.020923E5,4.963732E5,1.0742909E6,6.162056E5,-2.3201324E4,1.4466904E6,1.0483647E7,-4.3912466E5,2.111712E5,1.060355E5,2.189163E6],"split_indices":[1,1,3,1,3,0,0,1,2,0,0,1,0,2,0,0,2,3,3,2,2,1,0,2,1,2,2,2,2,1,1,0,0,3,2,2,0,3,0,1,2,3,0,2,2,2,2,3,3,0,0,3,2,2,1,2,2,1,1,2,2,2,2,0,0,0,0,0,0,0,0,0,0,0,0,0,0,0,0,0,0,0,0,0,0,0,0,0,0,0,0,0,0,0,0,0,0,0,0,0,0,0,0,0,0,0,0,0,0,0,0,0,0,0,0,0,0,0,0,0,0],"split_type":[0,0,0,0,0,0,0,0,0,0,0,0,0,0,0,0,0,0,0,0,0,0,0,0,0,0,0,0,0,0,0,0,0,0,0,0,0,0,0,0,0,0,0,0,0,0,0,0,0,0,0,0,0,0,0,0,0,0,0,0,0,0,0,0,0,0,0,0,0,0,0,0,0,0,0,0,0,0,0,0,0,0,0,0,0,0,0,0,0,0,0,0,0,0,0,0,0,0,0,0,0,0,0,0,0,0,0,0,0,0,0,0,0,0,0,0,0,0,0,0,0],"sum_hessian":[8.67927E5,8.63782E5,4.145E3,8.27755E5,3.6027E4,2.224E3,1.921E3,5.00856E5,3.26899E5,3.0033E4,5.994E3,9.8E1,2.126E3,9.12E2,1.009E3,1.16478E5,3.84378E5,3.25801E5,1.098E3,2.385E4,6.183E3,8.1E1,5.913E3,9.3E1,5E0,1.182E3,9.44E2,2.19E2,6.93E2,7.11E2,2.98E2,1.16475E5,3E0,3.62577E5,2.1801E4,1.86713E5,1.39088E5,1.096E3,2E0,1.9177E4,4.673E3,2.31E2,5.952E3,7.6E1,5E0,5.273E3,6.4E2,1.6E1,7.7E1,4E0,1E0,2.9E1,1.153E3,8.72E2,7.2E1,1.6E1,2.03E2,5.84E2,1.09E2,6.14E2,9.7E1,1.3E2,1.68E2,1.2012E4,1.04463E5,4.7809E4,3.14768E5,1.31E3,2.0491E4,1.23086E5,6.3627E4,2.5193E4,1.13895E5,9.97E2,9.9E1,1E0,1E0,1.8576E4,6.01E2,4.526E3,1.47E2,1.57E2,7.4E1,5.408E3,5.44E2,8E0,6.8E1,3E0,2E0,1.8E1,5.255E3,6.17E2,2.3E1,1.3E1,3E0,5.5E1,2.2E1,1.1E1,1.8E1,1.14E3,1.3E1,8.27E2,4.5E1,6E1,1.2E1,2E0,1.4E1,5E0,1.98E2,4.67E2,1.17E2,8.5E1,2.4E1,4.76E2,1.38E2,9.5E1,2E0,1.12E2,1.8E1,1.47E2,2.1E1],"tree_param":{"num_deleted":"0","num_feature":"4","num_nodes":"121","size_leaf_vector":"1"}},{"base_weights":[1.3306183E2,-5.968761E3,2.5409552E5,-1.3017678E4,4.5035516E4,1.7098897E5,6.505046E5,-2.476616E4,-5.08669E3,4.2057297E4,2.7581412E5,1.9204689E5,-5.4117883E4,5.2308478E5,1.1156199E6,-1.3464704E4,-3.1536568E4,-7.5701045E3,5.0539105E4,7.824783E4,2.3820797E4,4.355125E5,-4.319957E3,2.3397303E5,7.59386E4,-8.893352E4,1.2336525E6,4.8646997E5,2.3230118E6,2.1965888E6,1.11383086E5,-2.8427242E4,3.527865E4,-1.8603566E4,-5.882714E4,2.7047258E3,-2.265682E4,3.933048E4,1.7003233E5,5.0502902E4,1.8220977E5,9.934886E4,1.3984073E4,3.9932134E5,1.1093282E6,1.4016256E4,-5.2141853E5,2.2430973E5,1.00903794E6,3.1398709E4,3.5984388E5,-5.5170977E4,-4.193821E5,9.9967656E5,1.4836148E6,5.838831E5,-1.8525562E5,6.563221E6,1.1137952E6,3.8841222E6,4.9705216E5,-2.5641452E5,2.011846E6,-1.7406016E4,-6.8228545E3,-3.6128098E3,2.5006787E4,-1.3877774E4,-3.0435884E3,-1.8266752E4,1.8967283E4,-1.8044756E4,1.3896486E3,2.6685742E4,-8.2034375E3,3.7458863E4,9.28821E3,7.641537E4,7.311617E3,-5.157272E3,2.7004074E4,1.1427702E5,4.6564133E4,3.0327137E4,-1.3356141E6,3.9886694E3,3.5664894E5,3.2763738E5,1.126135E5,-1.738065E4,7.188645E5,5.704033E2,4.3020434E5,5.6330066E4,1.2367421E5,9.667091E4,1.9995346E6,-3.9072637E4,1.6384383E4,5.380724E4,2.156615E5,6.092409E3,-7.76085E4,-1.0435116E4,-2.8800738E5,-1.1572544E5,4.0074047E5,1.63453E5,1.02722525E6,9.3351164E4,-2.7170884E5,3.6046542E6,7.0054075E5,-2.8647306E5,1.0274977E6,8.0900256E5,3.8748052E6,-5.686184E5,1.3431779E6,-1.0382312E4,-5.7487044E5,1.0034976E7,1.374599E5],"categories":[],"categories_nodes":[],"categories_segments":[],"categories_sizes":[],"default_left":[0,0,0,0,0,0,0,0,0,0,0,0,0,0,0,0,0,0,0,0,0,0,0,0,0,0,0,0,0,0,0,0,0,0,0,0,0,0,0,0,0,0,0,0,0,0,0,0,0,0,0,0,0,0,0,0,0,0,0,0,0,0,0,0,0,0,0,0,0,0,0,0,0,0,0,0,0,0,0,0,0,0,0,0,0,0,0,0,0,0,0,0,0,0,0,0,0,0,0,0,0,0,0,0,0,0,0,0,0,0,0,0,0,0,0,0,0,0,0,0,0,0,0],"id":7,"left_children":[1,3,5,7,9,11,13,15,17,19,21,23,25,27,29,31,33,35,37,39,41,43,45,47,49,51,53,55,57,59,61,63,65,67,69,71,73,75,77,79,81,83,85,87,89,91,-1,93,95,97,99,101,103,105,-1,107,109,111,113,115,117,119,121,-1,-1,-1,-1,-1,-1,-1,-1,-1,-1,-1,-1,-1,-1,-1,-1,-1,-1,-1,-1,-1,-1,-1,-1,-1,-1,-1,-1,-1,-1,-1,-1,-1,-1,-1,-1,-1,-1,-1,-1,-1,-1,-1,-1,-1,-1,-1,-1,-1,-1,-1,-1,-1,-1,-1,-1,-1,-1,-1,-1],"loss_changes":[1.3449722E15,3.0472132E14,6.707645E14,6.9384467E13,7.0721435E13,7.981791E13,2.0856214E14,2.2961935E13,6.1411774E13,6.705494E13,5.865205E13,7.492946E13,6.4716303E13,1.8155578E14,8.226013E14,8.199966E13,6.6237204E13,6.5966805E13,2.5439712E13,9.8184966E13,5.0192963E13,1.9919454E13,1.5188315E13,8.448939E13,5.1656616E13,1.564099E13,2.8057532E13,1.779603E14,2.7469309E14,1.04489843E15,2.7591622E14,1.4469564E13,6.0079114E13,2.9784696E13,1.5190091E13,3.0668493E13,9.020936E13,1.2431823E13,2.0088028E13,7.187683E13,3.8409523E13,6.215936E13,4.833731E13,1.2760767E13,6.322855E13,8.1343645E12,0E0,7.665624E13,5.37812E14,1.3265181E13,3.5770065E13,1.9591535E13,2.6997537E13,1.7745333E13,0E0,2.613658E14,1.23669515E14,2.485752E14,2.1364275E14,1.9278259E15,1.7510916E15,1.2179444E14,3.1106668E15,0E0,0E0,0E0,0E0,0E0,0E0,0E0,0E0,0E0,0E0,0E0,0E0,0E0,0E0,0E0,0E0,0E0,0E0,0E0,0E0,0E0,0E0,0E0,0E0,0E0,0E0,0E0,0E0,0E0,0E0,0E0,0E0,0E0,0E0,0E0,0E0,0E0,0E0,0E0,0E0,0E0,0E0,0E0,0E0,0E0,0E0,0E0,0E0,0E0,0E0,0E0,0E0,0E0,0E0,0E0,0E0,0E0,0E0,0E0,0E0],"parents":[2147483647,0,0,1,1,2,2,3,3,4,4,5,5,6,6,7,7,8,8,9,9,10,10,11,11,12,12,13,13,14,14,15,15,16,16,17,17,18,18,19,19,20,20,21,21,22,22,23,23,24,24,25,25,26,26,27,27,28,28,29,29,30,30,31,31,32,32,33,33,34,34,35,35,36,36,37,37,38,38,39,39,40,40,41,41,42,42,43,43,44,44,45,45,47,47,48,48,49,49,50,50,51,51,52,52,53,53,55,55,56,56,57,57,58,58,59,59,60,60,61,61,62,62],"right_children":[2,4,6,8,10,12,14,16,18,20,22,24,26,28,30,32,34,36,38,40,42,44,46,48,50,52,54,56,58,60,62,64,66,68,70,72,74,76,78,80,82,84,86,88,90,92,-1,94,96,98,100,102,104,106,-1,108,110,112,114,116,118,120,122,-1,-1,-1,-1,-1,-1,-1,-1,-1,-1,-1,-1,-1,-1,-1,-1,-1,-1,-1,-1,-1,-1,-1,-1,-1,-1,-1,-1,-1,-1,-1,-1,-1,-1,-1,-1,-1,-1,-1,-1,-1,-1,-1,-1,-1,-1,-1,-1,-1,-1,-1,-1,-1,-1,-1,-1,-1,-1,-1,-1],"split_conditions":[5E3,4E0,8E0,1.515E3,1.618E1,7E0,1.1E1,3E0,4.37E0,1.9E-1,5E0,2E0,4.8E1,4.8E1,1.1E1,3.8E-1,2.4E-1,2.5E-1,4.8E1,3.466E3,4E0,4.783E3,1E1,1.88E0,2.46E1,4.94E0,1E1,4.94E0,6E0,2.05E0,2.7E1,8E2,2E0,1.1E-1,1.618E1,2E0,3E0,3E0,4E0,4E0,8E-2,1.7E1,1.1E1,1.842E3,5E0,9E0,-5.2141853E5,7E0,8.143E3,2.21E0,6.754E3,9E0,7E0,6.028E3,1.4836148E6,4.37E0,7E0,9E0,8E0,1.72E0,6.5E0,8E0,1.5E1,-1.7406016E4,-6.8228545E3,-3.6128098E3,2.5006787E4,-1.3877774E4,-3.0435884E3,-1.8266752E4,1.8967283E4,-1.8044756E4,1.3896486E3,2.6685742E4,-8.2034375E3,3.7458863E4,9.28821E3,7.641537E4,7.311617E3,-5.157272E3,2.7004074E4,1.1427702E5,4.6564133E4,3.0327137E4,-1.3356141E6,3.9886694E3,3.5664894E5,3.2763738E5,1.126135E5,-1.738065E4,7.188645E5,5.704033E2,4.3020434E5,5.6330066E4,1.2367421E5,9.667091E4,1.9995346E6,-3.9072637E4,1.6384383E4,5.380724E4,2.156615E5,6.092409E3,-7.76085E4,-1.0435116E4,-2.8800738E5,-1.1572544E5,4.0074047E5,1.63453E5,1.02722525E6,9.3351164E4,-2.7170884E5,3.6046542E6,7.0054075E5,-2.8647306E5,1.0274977E6,8.0900256E5,3.8748052E6,-5.686184E5,1.3431779E6,-1.0382312E4,-5.7487044E5,1.0034976E7,1.374599E5],"split_indices":[3,1,1,3,2,0,1,0,2,2,0,2,2,2,0,2,2,2,2,3,0,3,1,2,2,2,0,2,0,2,1,3,1,2,2,1,0,0,0,0,2,1,1,3,1,1,0,1,3,2,3,0,1,3,0,2,0,1,0,2,2,2,0,0,0,0,0,0,0,0,0,0,0,0,0,0,0,0,0,0,0,0,0,0,0,0,0,0,0,0,0,0,0,0,0,0,0,0,0,0,0,0,0,0,0,0,0,0,0,0,0,0,0,0,0,0,0,0,0,0,0,0,0],"split_type":[0,0,0,0,0,0,0,0,0,0,0,0,0,0,0,0,0,0,0,0,0,0,0,0,0,0,0,0,0,0,0,0,0,0,0,0,0,0,0,0,0,0,0,0,0,0,0,0,0,0,0,0,0,0,0,0,0,0,0,0,0,0,0,0,0,0,0,0,0,0,0,0,0,0,0,0,0,0,0,0,0,0,0,0,0,0,0,0,0,0,0,0,0,0,0,0,0,0,0,0,0,0,0,0,0,0,0,0,0,0,0,0,0,0,0,0,0,0,0,0,0,0,0],"sum_hessian":[8.67927E5,8.47564E5,2.0363E4,7.44652E5,1.02912E5,1.6835E4,3.528E3,3.001E5,4.44552E5,1.01602E5,1.31E3,1.5395E4,1.44E3,2.771E3,7.57E2,1.1243E5,1.8767E5,4.25554E5,1.8998E4,3.4042E4,6.756E4,8.34E2,4.76E2,1.131E4,4.085E3,1.403E3,3.7E1,2.717E3,5.4E1,3.64E2,3.93E2,8.6024E4,2.6406E4,1.2733E5,6.034E4,2.53148E5,1.72406E5,1.737E4,1.628E3,2.6872E4,7.17E3,7.784E3,5.9776E4,7.93E2,4.1E1,4.72E2,4E0,1.1172E4,1.38E2,3.532E3,5.53E2,1.274E3,1.29E2,3.6E1,1E0,2.373E3,3.44E2,1.1E1,4.3E1,1.82E2,1.82E2,3.3E2,6.3E1,1.386E4,7.2164E4,1.3308E4,1.3098E4,2.9821E4,9.7509E4,5.9338E4,1.002E3,7.531E3,2.45617E5,6.949E3,1.65457E5,1.547E3,1.5823E4,1.029E3,5.99E2,9.904E3,1.6968E4,8.56E2,6.314E3,7.782E3,2E0,5.9742E4,3.4E1,2.5E1,7.68E2,2.2E1,1.9E1,4.69E2,3E0,9.355E3,1.817E3,1.24E2,1.4E1,4.43E2,3.089E3,3.69E2,1.84E2,9.3E2,3.44E2,7.6E1,5.3E1,7E0,2.9E1,2.342E3,3.1E1,2.04E2,1.4E2,4E0,7E0,2.3E1,2E1,1.62E2,2E1,1.14E2,6.8E1,2.92E2,3.8E1,2E0,6.1E1],"tree_param":{"num_deleted":"0","num_feature":"4","num_nodes":"123","size_leaf_vector":"1"}},{"base_weights":[1.22441986E2,-5.2487266E3,1.4731183E5,-1.1861036E4,1.6277718E4,1.0573429E5,4.4604475E5,-2.4308284E3,-1.7436715E4,6.5144465E4,1.0474305E4,1.1818822E5,-4.8575617E4,5.2318784E5,-2.1148674E4,-2.3351041E4,4.181735E3,5.1691652E4,-1.8811443E4,2.21263E3,9.551364E4,4.770728E4,4.944519E2,3.3036628E5,1.0591327E5,-6.665593E4,7.7752075E5,4.2801612E5,2.528031E6,-1.5600577E5,3.0999152E6,-2.3882348E4,9.125835E4,-2.4928994E4,7.7478516E3,1.5663207E3,8.5896E4,-4.0162543E4,-1.4888362E4,-5.1971875E4,4.4850668E4,3.580438E4,1.6815303E5,2.837676E4,1.3695225E5,2.5885706E2,1.1271164E6,-2.0929098E5,5.1240775E5,2.9780016E5,9.476506E4,-2.402553E5,-2.602386E4,5.9586294E5,1.2610725E6,2.1005225E6,3.984048E5,2.24802E7,2.0917756E6,5.900045E4,-4.1524288E6,7.543237E6,-5.564796E5,-1.3293694E4,-6.4727114E3,3.676154E4,-1.7275066E5,-3.8096687E3,-2.0553137E4,4.1805518E2,6.3099126E3,9.15361E2,-7.089451E5,2.525027E4,4.2428694E5,-1.2413345E4,4.4168855E4,8.326446E3,-5.9582925E3,2.4699604E3,-2.89451E4,7.041087E3,2.8811898E4,-2.5276707E4,2.0626844E4,5.6680145E4,-8.0530796E3,5.69616E3,2.6940139E4,3.7889785E4,1.3430853E5,1.289929E3,-1.6760357E4,3.072858E6,-2.2233514E5,6.60535E4,-8.551652E4,-5.448257E4,1.6967698E5,-5.956742E4,1.2074498E5,1.9223365E4,5.4711645E4,-7.786492E4,1.1379967E4,5.8376594E4,-2.0720047E4,-7.906912E4,2.8452572E5,-6.497389E5,7.770154E5,-8.7972194E5,1.22813516E5,-7.3376056E5,1.0849851E7,-7.51259E5,9.8486794E5,-1.813896E4,1.7182871E6,-2.8547566E5,-1.9308826E6,1.3306984E5,4.3662585E6,4.7373278E5,-1.2867731E6],"categories":[],"categories_nodes":[],"categories_segments":[],"categories_sizes":[],"default_left":[0,0,0,0,0,0,0,0,0,0,0,0,0,0,0,0,0,0,0,0,0,0,0,0,0,0,0,0,0,0,0,0,0,0,0,0,0,0,0,0,0,0,0,0,0,0,0,0,0,0,0,0,0,0,0,0,0,0,0,0,0,0,0,0,0,0,0,0,0,0,0,0,0,0,0,0,0,0,0,0,0,0,0,0,0,0,0,0,0,0,0,0,0,0,0,0,0,0,0,0,0,0,0,0,0,0,0,0,0,0,0,0,0,0,0,0,0,0,0,0,0,0,0,0,0],"id":8,"left_children":[1,3,5,7,9,11,13,15,17,19,21,23,25,27,29,31,33,35,37,39,41,43,45,47,49,51,53,55,57,59,61,63,65,67,69,71,73,75,77,79,81,83,85,87,89,91,93,95,97,99,101,103,105,107,-1,109,111,113,115,117,119,121,123,-1,-1,-1,-1,-1,-1,-1,-1,-1,-1,-1,-1,-1,-1,-1,-1,-1,-1,-1,-1,-1,-1,-1,-1,-1,-1,-1,-1,-1,-1,-1,-1,-1,-1,-1,-1,-1,-1,-1,-1,-1,-1,-1,-1,-1,-1,-1,-1,-1,-1,-1,-1,-1,-1,-1,-1,-1,-1,-1,-1,-1,-1],"loss_changes":[6.861664E14,1.19191315E14,3.7948848E14,3.3682526E13,5.5803227E13,5.155709E13,1.34551125E14,3.2927715E13,3.8258713E13,3.9920698E13,6.5356E13,6.461322E13,2.9983729E13,6.102552E14,2.2355934E14,3.4832394E12,1.8775678E13,1.3458725E13,3.3062423E13,1.5712514E13,6.1101413E13,6.413553E13,3.6816732E13,1.334189E14,5.0170134E13,1.3833111E13,2.4257139E13,1.5071003E14,1.2150919E15,4.3760616E14,3.6162155E14,2.6806258E12,5.5793895E12,1.0519592E13,1.3601739E13,1.1190787E13,1.0594321E13,1.3959021E13,7.0709464E13,8.026901E12,4.1631854E12,3.0602974E13,2.5760744E13,1.7624094E13,2.1854547E13,3.1453476E13,5.01471E14,1.1223415E13,3.7565646E13,6.700478E13,5.9614666E13,2.0065487E12,1.5121283E13,1.2975808E13,0E0,1.16299326E14,1.111454E14,1.1118697E15,7.9105204E14,3.281084E14,1.839414E14,4.912991E14,1.1040462E14,0E0,0E0,0E0,0E0,0E0,0E0,0E0,0E0,0E0,0E0,0E0,0E0,0E0,0E0,0E0,0E0,0E0,0E0,0E0,0E0,0E0,0E0,0E0,0E0,0E0,0E0,0E0,0E0,0E0,0E0,0E0,0E0,0E0,0E0,0E0,0E0,0E0,0E0,0E0,0E0,0E0,0E0,0E0,0E0,0E0,0E0,0E0,0E0,0E0,0E0,0E0,0E0,0E0,0E0,0E0,0E0,0E0,0E0,0E0,0E0,0E0,0E0],"parents":[2147483647,0,0,1,1,2,2,3,3,4,4,5,5,6,6,7,7,8,8,9,9,10,10,11,11,12,12,13,13,14,14,15,15,16,16,17,17,18,18,19,19,20,20,21,21,22,22,23,23,24,24,25,25,26,26,27,27,28,28,29,29,30,30,31,31,32,32,33,33,34,34,35,35,36,36,37,37,38,38,39,39,40,40,41,41,42,42,43,43,44,44,45,45,46,46,47,47,48,48,49,49,50,50,51,51,52,52,53,53,55,55,56,56,57,57,58,58,59,59,60,60,61,61,62,62],"right_children":[2,4,6,8,10,12,14,16,18,20,22,24,26,28,30,32,34,36,38,40,42,44,46,48,50,52,54,56,58,60,62,64,66,68,70,72,74,76,78,80,82,84,86,88,90,92,94,96,98,100,102,104,106,108,-1,110,112,114,116,118,120,122,124,-1,-1,-1,-1,-1,-1,-1,-1,-1,-1,-1,-1,-1,-1,-1,-1,-1,-1,-1,-1,-1,-1,-1,-1,-1,-1,-1,-1,-1,-1,-1,-1,-1,-1,-1,-1,-1,-1,-1,-1,-1,-1,-1,-1,-1,-1,-1,-1,-1,-1,-1,-1,-1,-1,-1,-1,-1,-1,-1,-1,-1,-1],"split_conditions":[4.46E3,2.4E3,8E0,1.6E-1,1.3E-1,7E0,1.2E1,6E-2,2E0,4E0,4E0,1.7E-1,4.8E1,1.3E1,2.46E1,6E0,9.88E2,7.08E2,2E0,7E-2,4E0,4E0,1.2E1,4E0,4E0,1.5E-1,1E1,1E-1,5.234E3,5.52E0,4.8E1,2E-2,6E0,2E0,1.4E-1,4E0,4E0,4.8E1,3E0,4E0,4E0,3E0,7E0,3.03E0,1.618E1,6E0,1.2E1,4.603E3,4E0,3E0,6.028E3,1.3E1,2.1E-1,6.028E3,1.2610725E6,4E-2,4E0,5E0,5.5E-1,4.37E0,1.3E1,1.4E1,1.6E1,-1.3293694E4,-6.4727114E3,3.676154E4,-1.7275066E5,-3.8096687E3,-2.0553137E4,4.1805518E2,6.3099126E3,9.15361E2,-7.089451E5,2.525027E4,4.2428694E5,-1.2413345E4,4.4168855E4,8.326446E3,-5.9582925E3,2.4699604E3,-2.89451E4,7.041087E3,2.8811898E4,-2.5276707E4,2.0626844E4,5.6680145E4,-8.0530796E3,5.69616E3,2.6940139E4,3.7889785E4,1.3430853E5,1.289929E3,-1.6760357E4,3.072858E6,-2.2233514E5,6.60535E4,-8.551652E4,-5.448257E4,1.6967698E5,-5.956742E4,1.2074498E5,1.9223365E4,5.4711645E4,-7.786492E4,1.1379967E4,5.8376594E4,-2.0720047E4,-7.906912E4,2.8452572E5,-6.497389E5,7.770154E5,-8.7972194E5,1.22813516E5,-7.3376056E5,1.0849851E7,-7.51259E5,9.8486794E5,-1.813896E4,1.7182871E6,-2.8547566E5,-1.9308826E6,1.3306984E5,4.3662585E6,4.7373278E5,-1.2867731E6],"split_indices":[3,3,1,2,2,0,0,2,0,0,0,2,2,1,2,0,3,3,1,2,1,1,1,1,0,2,0,2,3,2,2,2,1,1,2,1,1,2,0,1,1,1,0,2,2,0,0,3,0,1,3,0,2,3,0,2,0,0,2,2,1,1,1,0,0,0,0,0,0,0,0,0,0,0,0,0,0,0,0,0,0,0,0,0,0,0,0,0,0,0,0,0,0,0,0,0,0,0,0,0,0,0,0,0,0,0,0,0,0,0,0,0,0,0,0,0,0,0,0,0,0,0,0,0,0],"split_type":[0,0,0,0,0,0,0,0,0,0,0,0,0,0,0,0,0,0,0,0,0,0,0,0,0,0,0,0,0,0,0,0,0,0,0,0,0,0,0,0,0,0,0,0,0,0,0,0,0,0,0,0,0,0,0,0,0,0,0,0,0,0,0,0,0,0,0,0,0,0,0,0,0,0,0,0,0,0,0,0,0,0,0,0,0,0,0,0,0,0,0,0,0,0,0,0,0,0,0,0,0,0,0,0,0,0,0,0,0,0,0,0,0,0,0,0,0,0,0,0,0,0,0,0,0],"sum_hessian":[8.67927E5,8.37371E5,3.0556E4,6.40598E5,1.96773E5,2.6824E4,3.732E3,2.38025E5,4.02573E5,2.0887E4,1.75886E5,2.4821E4,2.003E3,3.203E3,5.29E2,5.7166E4,1.80859E5,7.849E3,3.94724E5,6.799E3,1.4088E4,3.7178E4,1.38708E5,1.356E3,2.3465E4,1.961E3,4.2E1,3.059E3,1.44E2,5.08E2,2.1E1,5.6903E4,2.63E2,1.9737E4,1.61122E5,3.184E3,4.665E3,6.1268E4,3.33456E5,2.994E3,3.805E3,7.733E3,6.355E3,3.056E4,6.618E3,1.3868E5,2.8E1,3.42E2,1.014E3,1.287E3,2.2178E4,3.71E2,1.59E3,4.1E1,1E0,5.2E1,3.007E3,2E0,1.42E2,4.83E2,2.5E1,9E0,1.2E1,5.771E3,5.1132E4,2.52E2,1.1E1,1.5413E4,4.324E3,1.08992E5,5.213E4,3.183E3,1E0,4.66E3,5E0,6.0874E4,3.94E2,3.4823E4,2.98633E5,1.273E3,1.721E3,2.685E3,1.12E3,1.665E3,6.068E3,5.743E3,6.12E2,2.6509E4,4.051E3,6.4E3,2.18E2,1.29367E5,9.313E3,4E0,2.4E1,5.1E1,2.91E2,7.2E1,9.42E2,2.24E2,1.063E3,1.6426E4,5.752E3,3.47E2,2.4E1,2.59E2,1.331E3,1.2E1,2.9E1,5E0,4.7E1,9E0,2.998E3,1E0,1E0,2.9E1,1.13E2,4.74E2,9E0,1.1E1,1.4E1,5E0,4E0,8E0,4E0],"tree_param":{"num_deleted":"0","num_feature":"4","num_nodes":"125","size_leaf_vector":"1"}},{"base_weights":[1.05585E2,-1.7415349E3,2.3447017E5,-4.6365005E3,5.6610086E4,1.535202E5,7.197614E5,-1.1084076E4,5.420515E3,5.753829E4,-3.3823825E6,2.119904E5,-7.357308E4,1.1940365E6,3.513973E4,-1.0265507E4,-5.300821E4,4.888202E3,1.909358E5,5.6701723E4,1.472802E6,-6.240274E5,-1.9702811E6,1.6789839E6,2.0173023E5,-2.891189E5,4.0419575E5,1.01963156E6,1.0911071E7,-2.3159083E5,5.6789845E6,-2.3752035E4,-8.270388E3,-5.3502465E4,7.017736E5,1.330125E4,-1.2405844E3,1.7381684E5,1.2826934E6,5.8597332E4,-7.368138E5,-1.1363149E6,9.222374E6,-2.5736564E5,1.1686816E5,-1.2665206E6,2.8866388E6,2.211199E5,-4.7681816E5,-2.1682447E5,-8.6040275E5,2.3548455E5,1.5080635E6,1.9776985E6,8.144865E4,-1.4149504E6,1.9364244E7,-2.8583312E6,2.5710225E4,2.9689734E7,-3.301925E6,-4.7741616E3,-1.4364197E4,2.222802E4,-2.6105457E3,-2.819467E4,-1.1945084E4,-3.1007473E3,1.0921535E4,4.1809258E4,-1.4210217E3,3.7245523E4,9.53924E4,3.58094E6,-1.3650517E5,1.3079269E4,3.390652E4,1.10106E3,-5.0004278E5,-4.1650805E4,-1.7518891E6,-1.034279E5,-7.688917E5,-6.4545223E4,1.5867542E6,9.6660984E4,4.2886547E4,-4.4015553E5,-6.665801E4,-6.947224E4,2.976473E5,-9.511441E4,-7.7245425E5,6.025759E4,1.158589E6,1.0605195E6,2.2653462E5,-5.829694E3,8.8810444E5,-3.551904E3,2.6656782E6,-1.2489876E6,5.4151244E5,8.560295E6,2.0482072E5,-5.1076603E5,-2.7664E6,9.500435E4,-5.975495E5,-2.541771E6,1.2404536E7,-1.6470525E5,-1.1144975E6],"categories":[],"categories_nodes":[],"categories_segments":[],"categories_sizes":[],"default_left":[0,0,0,0,0,0,0,0,0,0,0,0,0,0,0,0,0,0,0,0,0,0,0,0,0,0,0,0,0,0,0,0,0,0,0,0,0,0,0,0,0,0,0,0,0,0,0,0,0,0,0,0,0,0,0,0,0,0,0,0,0,0,0,0,0,0,0,0,0,0,0,0,0,0,0,0,0,0,0,0,0,0,0,0,0,0,0,0,0,0,0,0,0,0,0,0,0,0,0,0,0,0,0,0,0,0,0,0,0,0,0,0,0],"id":9,"left_children":[1,3,5,7,9,11,13,15,17,19,21,23,25,27,29,31,33,35,37,39,41,43,-1,45,47,49,51,53,55,57,59,61,63,65,-1,67,69,71,73,75,77,79,-1,-1,-1,81,83,85,87,89,91,93,95,97,99,101,103,105,107,109,111,-1,-1,-1,-1,-1,-1,-1,-1,-1,-1,-1,-1,-1,-1,-1,-1,-1,-1,-1,-1,-1,-1,-1,-1,-1,-1,-1,-1,-1,-1,-1,-1,-1,-1,-1,-1,-1,-1,-1,-1,-1,-1,-1,-1,-1,-1,-1,-1,-1,-1,-1,-1],"loss_changes":[3.7572605E14,1.4546947E14,2.6651208E14,5.3200082E13,1.3012521E14,7.726812E13,3.1491606E14,1.7156029E13,3.1649933E13,4.809646E13,9.254732E13,6.930512E13,1.228703E14,9.599372E14,6.004588E14,1.3194005E13,1.144528E13,1.6478745E13,1.691555E13,6.122027E13,1.8676865E15,1.9934484E12,0E0,1.1748487E14,6.057424E13,3.3762574E13,6.8738007E13,5.0678574E14,1.0693392E15,2.5757734E14,3.9795237E15,1.1950365E13,1.5179752E13,5.29957E12,0E0,7.355838E13,9.089209E13,6.4328124E12,2.6461574E14,3.3118627E13,6.680486E13,1.0709277E14,0E0,0E0,0E0,1.1066577E13,1.725381E14,3.5264215E13,3.1952015E13,1.3265017E13,8.488641E13,3.9783447E13,7.211575E13,5.4758954E14,2.3500387E14,5.17631E13,1.00838276E15,2.3434358E14,2.0492279E14,2.5749456E15,1.3880277E13,0E0,0E0,0E0,0E0,0E0,0E0,0E0,0E0,0E0,0E0,0E0,0E0,0E0,0E0,0E0,0E0,0E0,0E0,0E0,0E0,0E0,0E0,0E0,0E0,0E0,0E0,0E0,0E0,0E0,0E0,0E0,0E0,0E0,0E0,0E0,0E0,0E0,0E0,0E0,0E0,0E0,0E0,0E0,0E0,0E0,0E0,0E0,0E0,0E0,0E0,0E0,0E0],"parents":[2147483647,0,0,1,1,2,2,3,3,4,4,5,5,6,6,7,7,8,8,9,9,10,10,11,11,12,12,13,13,14,14,15,15,16,16,17,17,18,18,19,19,20,20,21,21,23,23,24,24,25,25,26,26,27,27,28,28,29,29,30,30,31,31,32,32,33,33,35,35,36,36,37,37,38,38,39,39,40,40,41,41,45,45,46,46,47,47,48,48,49,49,50,50,51,51,52,52,53,53,54,54,55,55,56,56,57,57,58,58,59,59,60,60],"right_children":[2,4,6,8,10,12,14,16,18,20,22,24,26,28,30,32,34,36,38,40,42,44,-1,46,48,50,52,54,56,58,60,62,64,66,-1,68,70,72,74,76,78,80,-1,-1,-1,82,84,86,88,90,92,94,96,98,100,102,104,106,108,110,112,-1,-1,-1,-1,-1,-1,-1,-1,-1,-1,-1,-1,-1,-1,-1,-1,-1,-1,-1,-1,-1,-1,-1,-1,-1,-1,-1,-1,-1,-1,-1,-1,-1,-1,-1,-1,-1,-1,-1,-1,-1,-1,-1,-1,-1,-1,-1,-1,-1,-1,-1,-1],"split_conditions":[6.754E3,3.947E3,1E1,3E0,1.7E1,3.9E0,2E0,5E0,4.8E1,1.4E1,4.7E-1,6E-2,1.618E1,1.88E0,2.1E1,1E3,3.4E1,1.9E-1,3.87E3,1.1E1,6.5E0,3.5E-1,-1.9702811E6,3E-2,1E1,9E0,9E0,1E1,7E0,2.21E0,1.5E1,2E0,2E0,1.2E-1,7.017736E5,4E0,3E0,4E0,3E0,6E0,2.8E-1,5.2E-1,9.222374E6,-2.5736564E5,1.1686816E5,8E0,5E0,7.5E-1,1.1E1,1E1,1E1,1.3E1,6E0,7E0,8.2E1,6E0,1.4E1,9E0,1.5E1,8E0,2.4E1,-4.7741616E3,-1.4364197E4,2.222802E4,-2.6105457E3,-2.819467E4,-1.1945084E4,-3.1007473E3,1.0921535E4,4.1809258E4,-1.4210217E3,3.7245523E4,9.53924E4,3.58094E6,-1.3650517E5,1.3079269E4,3.390652E4,1.10106E3,-5.0004278E5,-4.1650805E4,-1.7518891E6,-1.034279E5,-7.688917E5,-6.4545223E4,1.5867542E6,9.6660984E4,4.2886547E4,-4.4015553E5,-6.665801E4,-6.947224E4,2.976473E5,-9.511441E4,-7.7245425E5,6.025759E4,1.158589E6,1.0605195E6,2.2653462E5,-5.829694E3,8.8810444E5,-3.551904E3,2.6656782E6,-1.2489876E6,5.4151244E5,8.560295E6,2.0482072E5,-5.1076603E5,-2.7664E6,9.500435E4,-5.975495E5,-2.541771E6,1.2404536E7,-1.6470525E5,-1.1144975E6],"split_indices":[3,3,1,1,1,2,2,0,2,1,2,2,2,2,1,3,0,2,3,1,2,2,0,2,0,1,1,0,0,2,0,1,0,2,0,0,0,1,0,1,2,2,0,0,0,1,1,2,0,0,2,0,0,0,0,0,1,0,1,0,0,0,0,0,0,0,0,0,0,0,0,0,0,0,0,0,0,0,0,0,0,0,0,0,0,0,0,0,0,0,0,0,0,0,0,0,0,0,0,0,0,0,0,0,0,0,0,0,0,0,0,0,0],"split_type":[0,0,0,0,0,0,0,0,0,0,0,0,0,0,0,0,0,0,0,0,0,0,0,0,0,0,0,0,0,0,0,0,0,0,0,0,0,0,0,0,0,0,0,0,0,0,0,0,0,0,0,0,0,0,0,0,0,0,0,0,0,0,0,0,0,0,0,0,0,0,0,0,0,0,0,0,0,0,0,0,0,0,0,0,0,0,0,0,0,0,0,0,0,0,0,0,0,0,0,0,0,0,0,0,0,0,0,0,0,0,0,0,0],"sum_hessian":[8.67927E5,8.61141E5,6.786E3,8.20438E5,4.0703E4,5.817E3,9.69E2,4.99931E5,3.20507E5,4.0693E4,1E1,4.626E3,1.191E3,5.72E2,3.97E2,4.90358E5,9.573E3,3.19591E5,9.16E2,4.067E4,2.3E1,6E0,4E0,3.1E1,4.595E3,8.21E2,3.7E2,5.63E2,9E0,3.8E2,1.7E1,6.3191E4,4.27167E5,9.572E3,1E0,1.34694E5,1.84897E5,9.03E2,1.3E1,4.0574E4,9.6E1,2.2E1,1E0,5E0,1E0,9E0,2.2E1,4.468E3,1.27E2,7.3E2,9.1E1,3.22E2,4.8E1,2.78E2,2.85E2,4E0,5E0,3.3E1,3.47E2,4E0,1.3E1,4.7698E4,1.5493E4,2.225E3,4.24942E5,2.417E3,7.155E3,6.6579E4,6.8115E4,4.485E3,1.80412E5,6.73E2,2.3E2,1E0,1.2E1,3.1809E4,8.765E3,5.4E1,4.2E1,1.9E1,3E0,6E0,3E0,1E1,1.2E1,1.947E3,2.521E3,2.5E1,1.02E2,7.22E2,8E0,7E1,2.1E1,3.2E2,2E0,1.2E1,3.6E1,9.2E1,1.86E2,2.83E2,2E0,2E0,2E0,3E0,2E0,2.9E1,4E0,3.04E2,4.3E1,1E0,3E0,2E0,1.1E1],"tree_param":{"num_deleted":"0","num_feature":"4","num_nodes":"113","size_leaf_vector":"1"}},{"base_weights":[1.0582428E2,-3.2534014E3,6.932194E4,-4.1726753E3,4.583972E4,5.1684996E4,2.838204E5,-9.501665E3,1.9249548E3,3.193338E4,1.4665844E5,5.2992555E4,-1.2603111E6,2.3959773E5,1.4870791E6,-1.0960404E3,-1.5406797E4,3.5984229E3,-5.0243707E4,-2.3422684E4,4.444609E4,1.2098917E5,3.789845E5,1.0982389E5,2.4041596E4,-3.0401443E2,-3.8853005E6,1.7404334E5,1.2637815E6,2.381705E6,-2.332643E6,-1.0568977E4,1.307123E4,3.946691E4,-1.695735E4,2.3017584E4,9.159402E2,1.2642908E5,-6.2613297E4,-1.5192405E3,-7.612197E4,2.8353553E4,1.11446805E5,1.6169286E5,1.8025025E4,1.6128894E5,6.226494E5,7.353825E4,2.9439312E5,2.5117027E4,-2.3793862E6,1.4491319E6,-6.0413425E5,-4.590163E6,-2.40658E5,3.3045375E5,-4.9043812E5,4.7981684E5,1.0357097E7,1.4290634E6,1.2789231E7,-1.4172949E6,-1.451952E5,-4.4785806E3,-5.880284E2,-9.82875E3,5.0222393E3,1.1416405E4,1.4883371E6,-1.0278268E4,-4.3621035E3,-8.492139E2,1.7439443E4,3.3943296E3,-1.5928698E3,4.8459305E4,-1.2531813E5,-1.8938701E4,5.5505775E5,-1.7449279E3,4.322994E4,-2.8960753E5,-9.033993E2,1.1593031E4,1.0926292E3,3.582184E4,-2.4633681E5,5.341218E4,-2.5180578E4,9.151239E2,1.9359605E5,6.3135137E4,-1.8827878E5,1.5317245E5,7.0084275E5,3.3233508E4,-1.104826E4,1.260957E5,-1.3576062E4,7.0502056E3,1.7074295E6,-7.050213E4,-1.2381604E6,-6.441585E5,-2.5516623E4,-1.5655718E6,-4.1530506E5,-9.6267305E4,-1.2028801E4,1.2357298E5,-2.4744717E5,-5.805745E4,-1.2624936E6,1.9472283E5,-1.2256568E6,9.781653E6,1.8412696E6,2.3618022E5,1.2683488E6,1.5846155E6,-3.3563034E5],"categories":[],"categories_nodes":[],"categories_segments":[],"categories_sizes":[],"default_left":[0,0,0,0,0,0,0,0,0,0,0,0,0,0,0,0,0,0,0,0,0,0,0,0,0,0,0,0,0,0,0,0,0,0,0,0,0,0,0,0,0,0,0,0,0,0,0,0,0,0,0,0,0,0,0,0,0,0,0,0,0,0,0,0,0,0,0,0,0,0,0,0,0,0,0,0,0,0,0,0,0,0,0,0,0,0,0,0,0,0,0,0,0,0,0,0,0,0,0,0,0,0,0,0,0,0,0,0,0,0,0,0,0,0,0,0,0,0,0,0,0],"id":10,"left_children":[1,3,5,7,9,11,13,15,17,19,21,23,25,27,29,31,33,35,37,39,41,43,45,47,49,51,53,55,57,59,61,63,65,67,69,71,73,75,77,79,81,83,85,87,89,91,93,95,97,99,101,-1,103,105,107,109,111,113,115,117,-1,-1,119,-1,-1,-1,-1,-1,-1,-1,-1,-1,-1,-1,-1,-1,-1,-1,-1,-1,-1,-1,-1,-1,-1,-1,-1,-1,-1,-1,-1,-1,-1,-1,-1,-1,-1,-1,-1,-1,-1,-1,-1,-1,-1,-1,-1,-1,-1,-1,-1,-1,-1,-1,-1,-1,-1,-1,-1,-1,-1],"loss_changes":[2.0180437E14,3.7356837E13,1.5196373E14,2.640293E13,2.1327035E13,6.375009E13,1.6204464E14,2.1522295E13,3.3082885E13,9.263215E12,1.0951101E13,6.1015757E13,1.2237651E14,1.9750662E14,3.746157E14,2.4012214E13,2.1670098E13,1.9126232E13,2.574721E13,2.846378E12,1.1756892E13,6.9625635E12,9.606766E12,8.380068E13,6.3568955E13,7.875891E13,2.9723002E13,2.879493E14,1.2568348E15,3.3132564E15,1.0917893E14,4.0242858E12,1.2059097E13,4.8457805E13,1.0358295E13,4.0447066E13,2.0884109E13,1.4794302E13,1.0975483E13,1.09152384E12,4.706625E13,2.2364878E12,1.5774645E13,4.797359E12,4.431764E12,3.9327891E12,1.5322579E13,4.2999132E13,8.795474E13,2.2481335E14,4.0257827E13,0E0,1.9040653E13,1.2921308E13,3.5408626E10,2.11322E14,5.8203746E14,1.2937883E14,1.1141718E15,1.5294415E14,0E0,0E0,6.931521E13,0E0,0E0,0E0,0E0,0E0,0E0,0E0,0E0,0E0,0E0,0E0,0E0,0E0,0E0,0E0,0E0,0E0,0E0,0E0,0E0,0E0,0E0,0E0,0E0,0E0,0E0,0E0,0E0,0E0,0E0,0E0,0E0,0E0,0E0,0E0,0E0,0E0,0E0,0E0,0E0,0E0,0E0,0E0,0E0,0E0,0E0,0E0,0E0,0E0,0E0,0E0,0E0,0E0,0E0,0E0,0E0,0E0,0E0],"parents":[2147483647,0,0,1,1,2,2,3,3,4,4,5,5,6,6,7,7,8,8,9,9,10,10,11,11,12,12,13,13,14,14,15,15,16,16,17,17,18,18,19,19,20,20,21,21,22,22,23,23,24,24,25,25,26,26,27,27,28,28,29,29,30,30,31,31,32,32,33,33,34,34,35,35,36,36,37,37,38,38,39,39,40,40,41,41,42,42,43,43,44,44,45,45,46,46,47,47,48,48,49,49,50,50,52,52,53,53,54,54,55,55,56,56,57,57,58,58,59,59,62,62],"right_children":[2,4,6,8,10,12,14,16,18,20,22,24,26,28,30,32,34,36,38,40,42,44,46,48,50,52,54,56,58,60,62,64,66,68,70,72,74,76,78,80,82,84,86,88,90,92,94,96,98,100,102,-1,104,106,108,110,112,114,116,118,-1,-1,120,-1,-1,-1,-1,-1,-1,-1,-1,-1,-1,-1,-1,-1,-1,-1,-1,-1,-1,-1,-1,-1,-1,-1,-1,-1,-1,-1,-1,-1,-1,-1,-1,-1,-1,-1,-1,-1,-1,-1,-1,-1,-1,-1,-1,-1,-1,-1,-1,-1,-1,-1,-1,-1,-1,-1,-1,-1,-1],"split_conditions":[5E0,1E1,8.143E3,1.803E3,4E0,1.7E1,4.8E1,1.6E-1,6E0,1.17E3,5.234E3,2.7E-1,5.7E-1,1.6E1,1E1,1.2E-1,2E0,1.2E-1,7E-2,1.044E3,4.8E1,5E0,5E0,5E3,1.5E1,1E3,4.3E1,4.94E0,5.52E0,1.2E1,1.2E1,1.442E3,8.79E2,4E0,1.014E3,4E0,4E0,4.329E3,3.4E1,1.036E3,1.054E3,4E0,6.028E3,4.783E3,8E0,8.143E3,8.143E3,6E0,7E0,1.4E1,1.01E0,1.4491319E6,1.6E1,1.618E1,6.9E1,1E1,1.3E1,4.94E0,6.5E0,8E0,1.2789231E7,-1.4172949E6,9E0,-4.4785806E3,-5.880284E2,-9.82875E3,5.0222393E3,1.1416405E4,1.4883371E6,-1.0278268E4,-4.3621035E3,-8.492139E2,1.7439443E4,3.3943296E3,-1.5928698E3,4.8459305E4,-1.2531813E5,-1.8938701E4,5.5505775E5,-1.7449279E3,4.322994E4,-2.8960753E5,-9.033993E2,1.1593031E4,1.0926292E3,3.582184E4,-2.4633681E5,5.341218E4,-2.5180578E4,9.151239E2,1.9359605E5,6.3135137E4,-1.8827878E5,1.5317245E5,7.0084275E5,3.3233508E4,-1.104826E4,1.260957E5,-1.3576062E4,7.0502056E3,1.7074295E6,-7.050213E4,-1.2381604E6,-6.441585E5,-2.5516623E4,-1.5655718E6,-4.1530506E5,-9.6267305E4,-1.2028801E4,1.2357298E5,-2.4744717E5,-5.805745E4,-1.2624936E6,1.9472283E5,-1.2256568E6,9.781653E6,1.8412696E6,2.3618022E5,1.2683488E6,1.5846155E6,-3.3563034E5],"split_indices":[1,2,3,3,1,1,2,2,0,3,3,2,2,1,0,2,0,2,2,3,2,0,0,3,1,3,0,2,2,1,0,3,3,1,3,0,0,3,0,3,3,0,3,3,0,3,3,0,0,1,2,0,0,2,0,0,1,2,2,0,0,0,1,0,0,0,0,0,0,0,0,0,0,0,0,0,0,0,0,0,0,0,0,0,0,0,0,0,0,0,0,0,0,0,0,0,0,0,0,0,0,0,0,0,0,0,0,0,0,0,0,0,0,0,0,0,0,0,0,0,0],"split_type":[0,0,0,0,0,0,0,0,0,0,0,0,0,0,0,0,0,0,0,0,0,0,0,0,0,0,0,0,0,0,0,0,0,0,0,0,0,0,0,0,0,0,0,0,0,0,0,0,0,0,0,0,0,0,0,0,0,0,0,0,0,0,0,0,0,0,0,0,0,0,0,0,0,0,0,0,0,0,0,0,0,0,0,0,0,0,0,0,0,0,0,0,0,0,0,0,0,0,0,0,0,0,0,0,0,0,0,0,0,0,0,0,0,0,0,0,0,0,0,0,0],"sum_hessian":[8.67927E5,8.27755E5,4.0172E4,8.12541E5,1.5214E4,3.7121E4,3.051E3,4.33599E5,3.78942E5,1.3371E4,1.843E3,3.7085E4,3.6E1,2.944E3,1.07E2,1.78919E5,2.5468E5,3.67165E5,1.1777E4,2.465E3,1.0906E4,1.661E3,1.82E2,1.2515E4,2.457E4,2.5E1,1.1E1,2.768E3,1.76E2,8.7E1,2E1,1.07224E5,7.1695E4,6.998E3,2.47682E5,4.4562E4,3.22603E5,7.7E2,1.1007E4,1.742E3,7.23E2,8.795E3,2.111E3,1.19E3,4.71E2,9.7E1,8.5E1,1.046E4,2.055E3,2.456E4,1E1,2E0,2.3E1,9E0,2E0,2.241E3,5.27E2,1.63E2,1.3E1,8.6E1,1E0,9E0,1.1E1,7.1178E4,3.6046E4,5.314E3,6.6381E4,6.997E3,1E0,3.0355E4,2.17327E5,2.5668E4,1.8894E4,1.20811E5,2.01792E5,7.24E2,4.6E1,1.1005E4,2E0,1.693E3,4.9E1,5.4E1,6.69E2,6.209E3,2.586E3,2.094E3,1.7E1,1.116E3,7.4E1,4.61E2,1E1,9.2E1,5E0,8.1E1,4E0,7.821E3,2.639E3,1.499E3,5.56E2,2.4554E4,6E0,5E0,5E0,5E0,1.8E1,7E0,2E0,1E0,1E0,2.094E3,1.47E2,4.89E2,3.8E1,1.58E2,5E0,1E0,1.2E1,7.1E1,1.5E1,1E0,1E1],"tree_param":{"num_deleted":"0","num_feature":"4","num_nodes":"121","size_leaf_vector":"1"}},{"base_weights":[1.0283494E2,-3.43101E2,4.5769316E5,-2.3926174E3,4.2111785E4,-9.907602E5,6.231184E5,-5.5460576E3,5.588282E3,3.8228676E4,3.1905875E5,-4.2726947E5,-3.2858825E6,2.2482212E6,3.5876972E5,-2.6802505E3,-1.2445169E4,2.0510518E4,1.3291318E2,4.7912715E4,-5.514195E4,1.6079844E5,1.059756E6,2.695337E6,-1.1080595E6,-4.546227E6,-8.3592944E5,1.6321196E6,2.2857004E7,5.465017E5,-1.2152585E6,-5.585901E3,8.761402E3,2.4878639E4,-2.3035342E4,-4.055817E4,2.4229021E4,6.774658E4,-3.3373555E3,1.930207E5,3.9499797E4,-1.3829114E5,8.4321625E4,2.0779361E5,-9.9429494E5,-2.662123E5,1.4993376E6,-1.2082949E6,7.4509565E6,2.1735402E6,-1.6849294E6,-1.9695404E6,-5.7372565E6,-3.3516708E6,2.138778E6,5.667098E6,-1.5899588E5,-5.851935E5,1.0870846E7,3.602102E5,1.2429136E7,-2.7956078E6,3.87616E6,-9.854496E3,-1.4490068E3,-1.7447326E4,3.6622715E3,-2.5664705E3,1.5969339E4,-8.03331E3,4.0677632E3,-9.294939E3,-7.771715E4,5.4716685E3,1.7473707E4,1.765258E4,1.3656353E5,-2.4846686E2,-1.275522E4,4.7173965E4,4.6586122E5,1.679343E4,-5.6481514E3,-2.2688965E4,-2.3627108E5,6.972538E4,-1.1839353E5,4.402576E4,6.151033E5,-4.686552E4,-7.933235E5,-3.1019012E5,2.723985E6,6.885169E5,1.989289E5,1.05927805E5,-5.362819E5,3.9390808E6,3.9861988E5,-2.5156712E6,-3.4422888E5,-1.2805013E4,-7.321751E5,-2.008139E6,-6.691813E5,-2.5133648E5,-1.6758872E6,-2.630899E5,3.4478578E6,3.0989662E5,-1.8913E6,5.374565E5,2.1245537E4,-3.8105953E5,8.961257E6,-1.7011394E6,-3.6019994E5,9.255582E6,7.8578266E4],"categories":[],"categories_nodes":[],"categories_segments":[],"categories_sizes":[],"default_left":[0,0,0,0,0,0,0,0,0,0,0,0,0,0,0,0,0,0,0,0,0,0,0,0,0,0,0,0,0,0,0,0,0,0,0,0,0,0,0,0,0,0,0,0,0,0,0,0,0,0,0,0,0,0,0,0,0,0,0,0,0,0,0,0,0,0,0,0,0,0,0,0,0,0,0,0,0,0,0,0,0,0,0,0,0,0,0,0,0,0,0,0,0,0,0,0,0,0,0,0,0,0,0,0,0,0,0,0,0,0,0,0,0,0,0,0,0,0,0],"id":11,"left_children":[1,3,5,7,9,11,13,15,17,19,21,23,25,27,29,31,33,35,37,39,41,43,45,47,49,51,53,55,57,59,61,63,65,67,69,71,73,75,77,79,81,83,85,87,89,91,93,95,97,-1,99,101,103,105,-1,107,109,-1,-1,111,113,115,117,-1,-1,-1,-1,-1,-1,-1,-1,-1,-1,-1,-1,-1,-1,-1,-1,-1,-1,-1,-1,-1,-1,-1,-1,-1,-1,-1,-1,-1,-1,-1,-1,-1,-1,-1,-1,-1,-1,-1,-1,-1,-1,-1,-1,-1,-1,-1,-1,-1,-1,-1,-1,-1,-1,-1,-1],"loss_changes":[1.7710605E14,7.5446805E13,2.030884E14,2.0817253E13,4.2930203E13,1.1111142E14,3.2525505E14,1.1722306E13,1.9070645E13,3.561022E13,6.453668E13,1.539212E14,4.8692044E13,1.3085878E15,1.9391814E14,1.3926233E13,6.8777178E13,1.4242791E13,4.0252303E13,4.354986E13,4.2929507E13,2.4960026E13,5.6937643E13,2.503374E14,2.965112E14,2.2458233E13,1.6416341E14,7.525208E14,1.0663996E15,1.2904989E15,5.7407164E14,6.883758E12,1.9564906E13,3.6456664E13,1.8562966E13,7.5236686E12,1.2044867E13,2.8868958E13,1.604146E13,9.486161E13,3.2416102E13,9.428812E13,9.819234E13,4.907401E13,2.4479527E13,1.8877737E14,4.7053296E13,7.867425E12,1.9117352E14,0E0,1.9206741E14,4.4339917E12,8.548579E12,2.90253E13,0E0,1.2300518E15,5.4124805E14,0E0,0E0,2.3887209E14,2.1884011E15,2.4079395E14,1.6493635E15,0E0,0E0,0E0,0E0,0E0,0E0,0E0,0E0,0E0,0E0,0E0,0E0,0E0,0E0,0E0,0E0,0E0,0E0,0E0,0E0,0E0,0E0,0E0,0E0,0E0,0E0,0E0,0E0,0E0,0E0,0E0,0E0,0E0,0E0,0E0,0E0,0E0,0E0,0E0,0E0,0E0,0E0,0E0,0E0,0E0,0E0,0E0,0E0,0E0,0E0,0E0,0E0,0E0,0E0,0E0,0E0],"parents":[2147483647,0,0,1,1,2,2,3,3,4,4,5,5,6,6,7,7,8,8,9,9,10,10,11,11,12,12,13,13,14,14,15,15,16,16,17,17,18,18,19,19,20,20,21,21,22,22,23,23,24,24,25,25,26,26,27,27,28,28,29,29,30,30,31,31,32,32,33,33,34,34,35,35,36,36,37,37,38,38,39,39,40,40,41,41,42,42,43,43,44,44,45,45,46,46,47,47,48,48,50,50,51,51,52,52,53,53,55,55,56,56,59,59,60,60,61,61,62,62],"right_children":[2,4,6,8,10,12,14,16,18,20,22,24,26,28,30,32,34,36,38,40,42,44,46,48,50,52,54,56,58,60,62,64,66,68,70,72,74,76,78,80,82,84,86,88,90,92,94,96,98,-1,100,102,104,106,-1,108,110,-1,-1,112,114,116,118,-1,-1,-1,-1,-1,-1,-1,-1,-1,-1,-1,-1,-1,-1,-1,-1,-1,-1,-1,-1,-1,-1,-1,-1,-1,-1,-1,-1,-1,-1,-1,-1,-1,-1,-1,-1,-1,-1,-1,-1,-1,-1,-1,-1,-1,-1,-1,-1,-1,-1,-1,-1,-1,-1,-1,-1],"split_conditions":[1.1E1,4.114E3,7E0,2.22E3,4.8E1,1.3E1,8E0,2.8E-1,4E0,7E0,8.143E3,8.143E3,1.6E1,2.46E1,8E0,4E0,3E0,6E-2,1E-1,1.6E-1,6.8E-1,8E0,5E0,7.3E-1,5.5E-1,1.3E0,6E0,9.1E-1,1.2E1,6.5E0,1.7E1,7.43E2,2E0,2E0,4.37E0,5E0,4E0,6E0,6E0,8E0,2E0,8.143E3,4.94E0,8E0,7E0,8E0,8E0,8E-2,3.03E0,2.1735402E6,8.7E-1,2E0,4.94E0,1.2E3,2.138778E6,5.7E-1,1.4E1,-5.851935E5,1.0870846E7,1.2E1,1.4E1,1E1,1.1E1,-9.854496E3,-1.4490068E3,-1.7447326E4,3.6622715E3,-2.5664705E3,1.5969339E4,-8.03331E3,4.0677632E3,-9.294939E3,-7.771715E4,5.4716685E3,1.7473707E4,1.765258E4,1.3656353E5,-2.4846686E2,-1.275522E4,4.7173965E4,4.6586122E5,1.679343E4,-5.6481514E3,-2.2688965E4,-2.3627108E5,6.972538E4,-1.1839353E5,4.402576E4,6.151033E5,-4.686552E4,-7.933235E5,-3.1019012E5,2.723985E6,6.885169E5,1.989289E5,1.05927805E5,-5.362819E5,3.9390808E6,3.9861988E5,-2.5156712E6,-3.4422888E5,-1.2805013E4,-7.321751E5,-2.008139E6,-6.691813E5,-2.5133648E5,-1.6758872E6,-2.630899E5,3.4478578E6,3.0989662E5,-1.8913E6,5.374565E5,2.1245537E4,-3.8105953E5,8.961257E6,-1.7011394E6,-3.6019994E5,9.255582E6,7.8578266E4],"split_indices":[1,3,0,3,2,1,0,2,0,0,3,3,1,2,2,0,0,2,2,2,2,0,0,2,2,2,0,2,1,2,1,3,1,1,2,1,1,1,0,1,2,3,2,1,1,1,1,2,2,0,2,0,2,3,0,2,1,0,0,1,1,0,0,0,0,0,0,0,0,0,0,0,0,0,0,0,0,0,0,0,0,0,0,0,0,0,0,0,0,0,0,0,0,0,0,0,0,0,0,0,0,0,0,0,0,0,0,0,0,0,0,0,0,0,0,0,0,0,0],"split_type":[0,0,0,0,0,0,0,0,0,0,0,0,0,0,0,0,0,0,0,0,0,0,0,0,0,0,0,0,0,0,0,0,0,0,0,0,0,0,0,0,0,0,0,0,0,0,0,0,0,0,0,0,0,0,0,0,0,0,0,0,0,0,0,0,0,0,0,0,0,0,0,0,0,0,0,0,0,0,0,0,0,0,0,0,0,0,0,0,0,0,0,0,0,0,0,0,0,0,0,0,0,0,0,0,0,0,0,0,0,0,0,0,0,0,0,0,0,0,0],"sum_hessian":[8.67927E5,8.67083E5,8.44E2,8.27153E5,3.993E4,8.6E1,7.58E2,5.92889E5,2.34264E5,3.9379E4,5.51E2,7E1,1.6E1,1.05E2,6.53E2,4.18889E5,1.74E5,6.2715E4,1.71549E5,3.5679E4,3.7E3,4.55E2,9.6E1,1.2E1,5.8E1,1E1,6E0,1.03E2,2E0,5.84E2,6.9E1,3.34055E5,8.4834E4,3.8458E4,1.35542E5,3.599E3,5.9116E4,8.374E3,1.63175E5,1.954E3,3.3725E4,2.318E3,1.382E3,4.38E2,1.7E1,2.4E1,7.2E1,7E0,5E0,3E0,5.5E1,4E0,6E0,5E0,1E0,3.1E1,7.2E1,1E0,1E0,5.76E2,8E0,5.3E1,1.6E1,9.011E3,3.25044E5,4.154E3,8.068E4,1.7648E4,2.081E4,1.22967E5,1.2575E4,3.449E3,1.5E2,5.0266E4,8.85E3,8.187E3,1.87E2,1.53355E5,9.82E3,1.905E3,4.9E1,2.6296E4,7.429E3,2.115E3,2.03E2,1.056E3,3.26E2,4.25E2,1.3E1,1.2E1,5E0,2.3E1,1E0,3.6E1,3.6E1,2E0,5E0,2E0,3E0,3E0,5.2E1,1E0,3E0,4E0,2E0,3E0,2E0,1.5E1,1.6E1,6.1E1,1.1E1,9.6E1,4.8E2,5E0,3E0,1.8E1,3.5E1,1E0,1.5E1],"tree_param":{"num_deleted":"0","num_feature":"4","num_nodes":"119","size_leaf_vector":"1"}},{"base_weights":[1.085128E2,-1.8035437E2,5.683369E5,-3.0603477E3,1.9341469E4,3.732199E5,4.267463E6,-5.1083865E2,-9.078035E3,-6.714889E4,2.2820652E4,5.910772E5,-2.2867708E6,9.240219E6,1.5372728E6,-9.136071E3,1.7930502E3,2.2331658E4,-1.5456139E4,-3.867253E4,-1.869574E5,4.1784637E4,2.250756E3,4.134643E5,1.1859789E7,-4.0651885E6,1.117845E7,-2.734772E6,3.8192415E6,-1.0059834E3,-1.865387E4,-2.141682E4,3.2460498E3,3.7229652E4,-1.5812146E4,-1.9403035E4,9.732971E3,-1.986736E5,-2.9798783E4,-1.9261711E5,4.3010106E5,3.787235E4,2.8415338E5,-1.1581791E4,9.384492E4,7.9683744E5,-1.1253979E6,-2.144091E6,2.3149912E7,1.077206E6,-6.433126E6,7.8672445E6,-7.734496E5,1.2177669E7,-1.3747781E6,2.8078306E3,-3.6336633E3,-8.0676646E3,-2.8645254E3,3.5274036E3,-9.377358E3,-1.9300925E3,1.2915073E3,7.482825E3,1.6623369E5,-1.1844266E4,1.0902603E4,-5.8283604E3,5.992544E5,1.394895E3,2.5225748E4,8.811181E3,-7.048273E4,1.2478208E5,-1.0079479E4,-5.3796688E4,-1.2581143E5,1.1626109E4,-2.5250248E5,8.844928E5,7.60354E4,6.258965E4,-4.39641E3,5.5522344E4,-2.263276E3,1.24560836E5,5.144344E6,-1.538245E6,2.3508364E5,1.0019116E7,-1.1387269E6,3.1018658E6,-7.592474E5,-2.3281822E6,-6.126707E5,5.403289E6,9.899879E5,2.3289331E5,-7.642085E5],"categories":[],"categories_nodes":[],"categories_segments":[],"categories_sizes":[],"default_left":[0,0,0,0,0,0,0,0,0,0,0,0,0,0,0,0,0,0,0,0,0,0,0,0,0,0,0,0,0,0,0,0,0,0,0,0,0,0,0,0,0,0,0,0,0,0,0,0,0,0,0,0,0,0,0,0,0,0,0,0,0,0,0,0,0,0,0,0,0,0,0,0,0,0,0,0,0,0,0,0,0,0,0,0,0,0,0,0,0,0,0,0,0,0,0,0,0,0,0],"id":12,"left_children":[1,3,5,7,9,11,13,15,17,19,21,23,25,-1,27,29,31,33,35,37,39,41,43,45,47,49,51,-1,53,55,57,59,61,63,65,67,69,71,73,75,-1,77,79,81,83,85,87,-1,89,91,93,-1,-1,95,97,-1,-1,-1,-1,-1,-1,-1,-1,-1,-1,-1,-1,-1,-1,-1,-1,-1,-1,-1,-1,-1,-1,-1,-1,-1,-1,-1,-1,-1,-1,-1,-1,-1,-1,-1,-1,-1,-1,-1,-1,-1,-1,-1,-1],"loss_changes":[1.42464E14,4.877259E13,3.1670438E14,1.1598106E13,3.356116E13,2.4474094E14,1.5463498E15,1.0551785E13,4.5068946E13,1.4707478E13,4.1822332E13,7.736676E14,8.117397E14,0E0,5.4533052E14,8.661648E12,1.4132523E13,2.1578788E13,1.859111E13,4.9435346E12,7.8708044E12,5.288447E13,6.51619E13,2.2744076E14,1.4529834E15,3.6005902E14,8.9552175E14,0E0,7.981907E14,6.949949E12,3.8679809E12,8.0607036E12,4.042588E12,1.734098E14,1.3167791E13,8.135641E12,9.574077E12,1.5204745E12,5.6095513E12,2.4149083E12,0E0,4.2589357E13,7.17232E13,3.0239923E13,6.24183E13,1.9148305E15,5.922995E14,0E0,1.231231E15,3.6035584E14,1.0072752E14,0E0,0E0,3.0306846E14,3.2245522E13,0E0,0E0,0E0,0E0,0E0,0E0,0E0,0E0,0E0,0E0,0E0,0E0,0E0,0E0,0E0,0E0,0E0,0E0,0E0,0E0,0E0,0E0,0E0,0E0,0E0,0E0,0E0,0E0,0E0,0E0,0E0,0E0,0E0,0E0,0E0,0E0,0E0,0E0,0E0,0E0,0E0,0E0,0E0,0E0],"parents":[2147483647,0,0,1,1,2,2,3,3,4,4,5,5,6,6,7,7,8,8,9,9,10,10,11,11,12,12,14,14,15,15,16,16,17,17,18,18,19,19,20,20,21,21,22,22,23,23,24,24,25,25,26,26,28,28,29,29,30,30,31,31,32,32,33,33,34,34,35,35,36,36,37,37,38,38,39,39,41,41,42,42,43,43,44,44,45,45,46,46,48,48,49,49,50,50,53,53,54,54],"right_children":[2,4,6,8,10,12,14,16,18,20,22,24,26,-1,28,30,32,34,36,38,40,42,44,46,48,50,52,-1,54,56,58,60,62,64,66,68,70,72,74,76,-1,78,80,82,84,86,88,-1,90,92,94,-1,-1,96,98,-1,-1,-1,-1,-1,-1,-1,-1,-1,-1,-1,-1,-1,-1,-1,-1,-1,-1,-1,-1,-1,-1,-1,-1,-1,-1,-1,-1,-1,-1,-1,-1,-1,-1,-1,-1,-1,-1,-1,-1,-1,-1,-1,-1],"split_conditions":[1.3E1,3.07E3,2.46E1,3E-1,3E0,8E0,8E0,1.204E3,3E0,4.023E3,5E0,6.5E0,2.1E1,9.240219E6,9E0,2E0,2E0,2.84E0,3.03E0,2E0,1.3E1,6.754E3,7E0,2.05E0,1.4E1,1.4E1,1.1E1,-2.734772E6,4.8E1,1.5E-1,1.098E3,3E0,6E-2,2.55E0,1.314E3,3.4E1,4.8E1,2E0,6E-2,2.46E1,4.3010106E5,8E0,7E-2,7E-2,8.3E-1,1.88E0,3.03E0,-2.144091E6,1.1E1,8.143E3,1.8E1,7.8672445E6,-7.734496E5,1.4E1,1.6E1,2.8078306E3,-3.6336633E3,-8.0676646E3,-2.8645254E3,3.5274036E3,-9.377358E3,-1.9300925E3,1.2915073E3,7.482825E3,1.6623369E5,-1.1844266E4,1.0902603E4,-5.8283604E3,5.992544E5,1.394895E3,2.5225748E4,8.811181E3,-7.048273E4,1.2478208E5,-1.0079479E4,-5.3796688E4,-1.2581143E5,1.1626109E4,-2.5250248E5,8.844928E5,7.60354E4,6.258965E4,-4.39641E3,5.5522344E4,-2.263276E3,1.24560836E5,5.144344E6,-1.538245E6,2.3508364E5,1.0019116E7,-1.1387269E6,3.1018658E6,-7.592474E5,-2.3281822E6,-6.126707E5,5.403289E6,9.899879E5,2.3289331E5,-7.642085E5],"split_indices":[1,3,2,2,1,2,0,3,0,3,0,2,1,0,0,1,1,2,2,1,0,3,1,2,1,1,0,0,2,2,3,0,2,2,3,0,2,0,2,2,0,1,2,2,2,2,2,0,0,3,1,0,0,0,1,0,0,0,0,0,0,0,0,0,0,0,0,0,0,0,0,0,0,0,0,0,0,0,0,0,0,0,0,0,0,0,0,0,0,0,0,0,0,0,0,0,0,0,0],"split_type":[0,0,0,0,0,0,0,0,0,0,0,0,0,0,0,0,0,0,0,0,0,0,0,0,0,0,0,0,0,0,0,0,0,0,0,0,0,0,0,0,0,0,0,0,0,0,0,0,0,0,0,0,0,0,0,0,0,0,0,0,0,0,0,0,0,0,0,0,0,0,0,0,0,0,0,0,0,0,0,0,0,0,0,0,0,0,0,0,0,0,0,0,0,0,0,0,0,0,0],"sum_hessian":[8.67927E5,8.67487E5,4.4E2,7.55963E5,1.11524E5,4.19E2,2.1E1,5.30997E5,2.24966E5,4.312E3,1.07212E5,3.88E2,3.1E1,1E0,2E1,1.11935E5,4.19062E5,3.7971E4,1.86995E5,3.485E3,8.27E2,5.5783E4,5.1429E4,3.83E2,5E0,2.8E1,3E0,3E0,1.7E1,6.0369E4,5.1566E4,2.4688E4,3.94374E5,2.7306E4,1.0665E4,1.61664E5,2.5331E4,1.82E2,3.303E3,8.25E2,2E0,5.4898E4,8.85E2,4.4682E4,6.747E3,3.07E2,7.6E1,2E0,3E0,9E0,1.9E1,1E0,2E0,6E0,1.1E1,3.1226E4,2.9143E4,2.7071E4,2.4495E4,5.648E3,1.904E4,3.889E4,3.55484E5,2.6673E4,6.33E2,7.336E3,3.329E3,1.61663E5,1E0,2.3711E4,1.62E3,2.5E1,1.57E2,2.7E1,3.276E3,7.81E2,4.4E1,5.4844E4,5.4E1,9E0,8.76E2,6.14E2,4.4068E4,3.551E3,3.196E3,3.01E2,6E0,2.4E1,5.2E1,2E0,1E0,2E0,7E0,1.4E1,5E0,3E0,3E0,4E0,7E0],"tree_param":{"num_deleted":"0","num_feature":"4","num_nodes":"99","size_leaf_vector":"1"}},{"base_weights":[1.1222741E2,-1.2404239E2,4.6487662E5,-2.5097869E3,1.4499659E4,1.6792735E6,-1.5452989E4,-2.1217385E3,-4.4607094E4,1.3416504E4,1.9344155E5,1.3190392E6,1.5889123E7,-2.4001894E5,1.3472572E6,-2.0420273E3,-1.9205753E5,5.7270256E5,-4.7788156E4,1.4023918E4,-2.465309E5,2.2422764E5,-2.0517364E6,4.0492088E6,-8.762993E5,7.8541855E6,-7.0407994E5,2.3596799E4,-2.0937766E6,6.83668E6,-8.5606856E5,-3.2471826E3,7.272455E3,-3.5677453E5,2.3424897E5,9.8251256E5,2.162194E5,-7.8468586E4,-2.5775975E4,1.1029649E4,7.32448E4,-2.7788775E5,2.7622855E6,1.4004769E5,8.07323E5,-1.2576152E6,-9.926515E5,1.6332105E6,2.0382738E7,-2.8468082E6,2.9370222E6,-1.1824056E6,4.1442397E5,-3.4201762E6,-9.9428806E5,1.37076E7,-6.8983135E6,-3.4672575E6,2.1350232E6,-8.23986E2,-1.415098E4,-6.509592E3,3.2553877E3,-7.6858305E4,-1.4574625E5,8.93602E5,-1.2936474E4,2.4648855E5,5.093662E5,3.5773094E4,2.1780027E5,1.31904E4,-2.8727611E4,-7.998304E3,3.4408084E5,3.973326E3,-2.410534E4,7.4572775E5,1.8840838E4,-4.9456598E4,-3.1182522E5,-1.8017003E5,1.4231985E6,7.1842456E5,3.4395668E4,1.1748423E5,6.523114E5,-1.6982112E5,-3.833145E5,9.8314244E5,-1.5317502E6,9.964307E6,7.366307E5,1.4477705E5,-1.5013115E6,-3.227878E5,4.546588E6,-1.3476783E5,-1.5617134E6,8.824331E4,1.1680802E6,-1.3983985E6,9.294624E5,2.304399E5,-4.8989122E5,2.3565452E6,9.07908E6,-2.6583702E6,1.4300511E5,-1.6258666E6,-4.0903925E5,2.0772979E6,-2.0142503E5],"categories":[],"categories_nodes":[],"categories_segments":[],"categories_sizes":[],"default_left":[0,0,0,0,0,0,0,0,0,0,0,0,0,0,0,0,0,0,0,0,0,0,0,0,0,0,0,0,0,0,0,0,0,0,0,0,0,0,0,0,0,0,0,0,0,0,0,0,0,0,0,0,0,0,0,0,0,0,0,0,0,0,0,0,0,0,0,0,0,0,0,0,0,0,0,0,0,0,0,0,0,0,0,0,0,0,0,0,0,0,0,0,0,0,0,0,0,0,0,0,0,0,0,0,0,0,0,0,0,0,0,0,0],"id":13,"left_children":[1,3,5,7,9,11,13,15,17,19,21,23,25,27,29,31,33,35,37,39,41,43,45,47,49,-1,-1,51,53,55,57,59,61,63,65,67,69,71,73,75,77,79,81,83,85,-1,87,89,91,93,95,97,99,101,103,105,107,109,111,-1,-1,-1,-1,-1,-1,-1,-1,-1,-1,-1,-1,-1,-1,-1,-1,-1,-1,-1,-1,-1,-1,-1,-1,-1,-1,-1,-1,-1,-1,-1,-1,-1,-1,-1,-1,-1,-1,-1,-1,-1,-1,-1,-1,-1,-1,-1,-1,-1,-1,-1,-1,-1,-1],"loss_changes":[9.530705E13,3.0265318E13,2.57266E14,1.2183388E13,2.3580474E13,6.189011E14,9.733117E13,1.1188126E13,1.3404089E13,1.9099822E13,5.105607E13,7.4076683E14,6.24473E14,1.3345896E14,5.5012706E14,8.2921673E12,2.1851753E13,4.9007244E12,4.575453E12,2.139536E13,2.7373462E13,3.537534E13,1.8506498E13,2.1371083E15,5.268398E14,0E0,0E0,1.13611255E14,4.618365E13,1.3213961E15,2.651428E14,1.4380293E13,8.7746014E12,2.7829438E12,6.6354795E13,4.4644696E11,9.021579E11,5.997276E12,4.1281881E12,2.3246456E13,1.4613081E14,2.393036E13,2.2841674E13,3.5970485E13,5.0863268E13,0E0,2.4954484E11,5.595802E14,1.5286983E15,3.3285084E14,1.1930673E15,1.7169994E14,7.501696E13,1.3579633E14,2.376689E13,6.3431325E14,7.660665E13,6.6540737E13,2.1970336E14,0E0,0E0,0E0,0E0,0E0,0E0,0E0,0E0,0E0,0E0,0E0,0E0,0E0,0E0,0E0,0E0,0E0,0E0,0E0,0E0,0E0,0E0,0E0,0E0,0E0,0E0,0E0,0E0,0E0,0E0,0E0,0E0,0E0,0E0,0E0,0E0,0E0,0E0,0E0,0E0,0E0,0E0,0E0,0E0,0E0,0E0,0E0,0E0,0E0,0E0,0E0,0E0,0E0,0E0],"parents":[2147483647,0,0,1,1,2,2,3,3,4,4,5,5,6,6,7,7,8,8,9,9,10,10,11,11,12,12,13,13,14,14,15,15,16,16,17,17,18,18,19,19,20,20,21,21,22,22,23,23,24,24,27,27,28,28,29,29,30,30,31,31,32,32,33,33,34,34,35,35,36,36,37,37,38,38,39,39,40,40,41,41,42,42,43,43,44,44,46,46,47,47,48,48,49,49,50,50,51,51,52,52,53,53,54,54,55,55,56,56,57,57,58,58],"right_children":[2,4,6,8,10,12,14,16,18,20,22,24,26,28,30,32,34,36,38,40,42,44,46,48,50,-1,-1,52,54,56,58,60,62,64,66,68,70,72,74,76,78,80,82,84,86,-1,88,90,92,94,96,98,100,102,104,106,108,110,112,-1,-1,-1,-1,-1,-1,-1,-1,-1,-1,-1,-1,-1,-1,-1,-1,-1,-1,-1,-1,-1,-1,-1,-1,-1,-1,-1,-1,-1,-1,-1,-1,-1,-1,-1,-1,-1,-1,-1,-1,-1,-1,-1,-1,-1,-1,-1,-1,-1,-1,-1,-1,-1,-1],"split_conditions":[1.3E1,4E0,1.1E1,6E0,4.8E1,4.8E1,4.37E0,6.754E3,1.008E3,1.3E1,1.1E1,2.05E0,8E0,1.3E0,6.5E0,1.01E0,1.5E0,2E0,1.4E-1,6.754E3,2.46E1,8.143E3,8E0,1.72E0,6.5E0,7.8541855E6,-7.0407994E5,1.5E1,2.05E0,1.5E1,2.46E1,1E0,1.036E3,3E0,2E0,2.1E1,8E0,6E-2,3.4E1,8E0,6E-2,6.8E-1,7E0,1.812E3,8E0,-1.2576152E6,1.2E1,1.3E0,1.4E1,8E0,1E1,1.8E1,8.4E1,6.4E1,1.3E1,2.5E1,5.52E0,1.4E1,4.8E1,-8.23986E2,-1.415098E4,-6.509592E3,3.2553877E3,-7.6858305E4,-1.4574625E5,8.93602E5,-1.2936474E4,2.4648855E5,5.093662E5,3.5773094E4,2.1780027E5,1.31904E4,-2.8727611E4,-7.998304E3,3.4408084E5,3.973326E3,-2.410534E4,7.4572775E5,1.8840838E4,-4.9456598E4,-3.1182522E5,-1.8017003E5,1.4231985E6,7.1842456E5,3.4395668E4,1.1748423E5,6.523114E5,-1.6982112E5,-3.833145E5,9.8314244E5,-1.5317502E6,9.964307E6,7.366307E5,1.4477705E5,-1.5013115E6,-3.227878E5,4.546588E6,-1.3476783E5,-1.5617134E6,8.824331E4,1.1680802E6,-1.3983985E6,9.294624E5,2.304399E5,-4.8989122E5,2.3565452E6,9.07908E6,-2.6583702E6,1.4300511E5,-1.6258666E6,-4.0903925E5,2.0772979E6,-2.0142503E5],"split_indices":[1,1,0,0,2,2,2,3,3,0,1,2,0,2,2,2,2,1,2,3,2,3,0,2,2,0,0,0,2,0,2,2,3,1,2,0,0,2,0,0,2,2,1,3,0,0,1,2,1,0,0,1,0,1,0,1,2,0,2,0,0,0,0,0,0,0,0,0,0,0,0,0,0,0,0,0,0,0,0,0,0,0,0,0,0,0,0,0,0,0,0,0,0,0,0,0,0,0,0,0,0,0,0,0,0,0,0,0,0,0,0,0,0],"split_type":[0,0,0,0,0,0,0,0,0,0,0,0,0,0,0,0,0,0,0,0,0,0,0,0,0,0,0,0,0,0,0,0,0,0,0,0,0,0,0,0,0,0,0,0,0,0,0,0,0,0,0,0,0,0,0,0,0,0,0,0,0,0,0,0,0,0,0,0,0,0,0,0,0,0,0,0,0,0,0,0,0,0,0,0,0,0,0,0,0,0,0,0,0,0,0,0,0,0,0,0,0,0,0,0,0,0,0,0,0,0,0,0,0],"sum_hessian":[8.67927E5,8.67487E5,4.4E2,7.45814E5,1.21673E5,1.24E2,3.16E2,7.39003E5,6.811E3,1.20942E5,7.31E2,1.22E2,2E0,2.72E2,4.4E1,7.38694E5,3.09E2,3.4E1,6.777E3,1.20661E5,2.81E2,7.22E2,9E0,5.4E1,6.8E1,1E0,1E0,2.39E2,3.3E1,1.2E1,3.2E1,6.54068E5,8.4626E4,2.23E2,8.6E1,1.5E1,1.9E1,2.83E3,3.947E3,1.14855E5,5.806E3,2.79E2,2E0,6.32E2,9E1,2E0,7E0,4.8E1,6E0,4.5E1,2.3E1,5.8E1,1.81E2,1.4E1,1.9E1,8E0,4E0,1.7E1,1.5E1,6.46699E5,7.369E3,9.304E3,7.5322E4,1.27E2,9.6E1,7E0,7.9E1,1.4E1,1E0,1.7E1,2E0,3.5E2,2.48E3,3.945E3,2E0,1.12138E5,2.717E3,2.4E1,5.782E3,2.44E2,3.5E1,1E0,1E0,6E0,6.26E2,7E1,2E1,4E0,3E0,3.9E1,9E0,3E0,3E0,1.8E1,2.7E1,1.8E1,5E0,5E1,8E0,1.76E2,5E0,1.2E1,2E0,5E0,1.4E1,7E0,1E0,3E0,1E0,8E0,9E0,5E0,1E1],"tree_param":{"num_deleted":"0","num_feature":"4","num_nodes":"113","size_leaf_vector":"1"}},{"base_weights":[1.1436696E2,-8.3006935E1,3.883669E5,-7.0468744E2,3.297637E4,-2.7876038E6,5.1449194E5,-1.2263484E3,3.3388953E4,7.780974E4,-3.3690457E4,-3.5240148E6,-3.154138E5,4.4189545E6,2.1740006E5,2.9201543E3,-4.159044E3,1.8027207E4,1.3390252E5,1.6747439E5,-2.086008E4,-1.14156516E5,6.2233926E4,-4.112404E5,-1.2986062E6,-3.3292368E6,1.7609818E6,1.3419829E7,1.6095765E6,9.778618E5,-6.3933754E4,3.0893728E3,-4.6352956E5,-4.1705493E3,4.2292916E5,1.917936E4,-4.7485662E5,9.2800706E5,1.1470992E5,1.1121697E5,4.9343384E5,-8.174607E4,6.1589456E5,-1.1861487E5,5.1253015E6,-1.2255941E4,1.9900225E5,-1.535191E6,-3.0823412E5,1.2077302E6,1.6372301E7,-2.5553098E5,6.6760575E6,1.1668638E7,5.572756E5,-1.8518197E5,2.3396152E6,8.033374E2,4.9811348E4,-8.401068E4,-2.5113414E5,-8.48367E2,-4.703647E3,2.9493652E3,1.9587184E4,-4.3292105E4,-2.2436317E5,2.0085598E6,-2.6150658E4,-3.7698547E3,4.9695723E4,5.5442957E4,-1.8004307E4,1.3146075E5,1.8595691E6,-1.2257084E4,-9.634588E4,1.01685836E5,2.1620088E6,-3.079917E4,-6.278604E5,2.5423185E6,-2.3593283E5,-1.8014102E4,1.9696175E5,2.3508195E5,2.1369014E3,5.5770555E6,1.1251146E6,-2.4544555E6,7.2019825E5,-4.311007E5,4.9548555E6,-1.6579712E5,1.6655554E6,-4.4375894E3,-6.784839E5,2.0558346E6,-4.5278824E4],"categories":[],"categories_nodes":[],"categories_segments":[],"categories_sizes":[],"default_left":[0,0,0,0,0,0,0,0,0,0,0,0,0,0,0,0,0,0,0,0,0,0,0,0,0,0,0,0,0,0,0,0,0,0,0,0,0,0,0,0,0,0,0,0,0,0,0,0,0,0,0,0,0,0,0,0,0,0,0,0,0,0,0,0,0,0,0,0,0,0,0,0,0,0,0,0,0,0,0,0,0,0,0,0,0,0,0,0,0,0,0,0,0,0,0,0,0,0,0],"id":14,"left_children":[1,3,5,7,9,11,13,15,17,19,21,23,25,27,29,31,33,35,37,39,41,43,45,-1,-1,47,-1,49,51,53,55,57,59,61,-1,63,65,67,69,71,73,75,77,79,81,83,85,-1,-1,-1,87,89,-1,91,93,95,97,-1,-1,-1,-1,-1,-1,-1,-1,-1,-1,-1,-1,-1,-1,-1,-1,-1,-1,-1,-1,-1,-1,-1,-1,-1,-1,-1,-1,-1,-1,-1,-1,-1,-1,-1,-1,-1,-1,-1,-1,-1,-1],"loss_changes":[6.651015E13,1.7828959E13,1.7808528E14,1.5143833E13,4.7860867E13,2.9837784E13,4.9203256E14,1.0198309E13,1.9811015E13,8.470654E13,4.9707536E13,1.6590435E13,1.1275021E14,7.370057E14,8.478419E13,2.7424427E13,7.996759E12,6.3307147E12,2.581836E13,9.192673E13,1.768002E14,8.24123E13,2.9934353E13,0E0,0E0,1.1205255E13,0E0,1.2823873E14,9.2976284E14,4.7461137E14,8.4946794E13,2.3291845E13,8.402936E12,7.5901053E12,0E0,4.7870803E12,2.2384943E12,2.347722E14,1.0778088E13,5.3932513E13,2.2982902E14,4.0729267E13,7.2401405E14,1.10004456E14,6.606157E13,6.086392E13,1.16206095E14,0E0,0E0,0E0,7.0249425E13,5.0385875E14,0E0,2.7785465E14,5.7960704E14,9.796999E13,1.5839769E14,0E0,0E0,0E0,0E0,0E0,0E0,0E0,0E0,0E0,0E0,0E0,0E0,0E0,0E0,0E0,0E0,0E0,0E0,0E0,0E0,0E0,0E0,0E0,0E0,0E0,0E0,0E0,0E0,0E0,0E0,0E0,0E0,0E0,0E0,0E0,0E0,0E0,0E0,0E0,0E0,0E0,0E0],"parents":[2147483647,0,0,1,1,2,2,3,3,4,4,5,5,6,6,7,7,8,8,9,9,10,10,11,11,12,12,13,13,14,14,15,15,16,16,17,17,18,18,19,19,20,20,21,21,22,22,25,25,27,27,28,28,29,29,30,30,31,31,32,32,33,33,35,35,36,36,37,37,38,38,39,39,40,40,41,41,42,42,43,43,44,44,45,45,46,46,50,50,51,51,53,53,54,54,55,55,56,56],"right_children":[2,4,6,8,10,12,14,16,18,20,22,24,26,28,30,32,34,36,38,40,42,44,46,-1,-1,48,-1,50,52,54,56,58,60,62,-1,64,66,68,70,72,74,76,78,80,82,84,86,-1,-1,-1,88,90,-1,92,94,96,98,-1,-1,-1,-1,-1,-1,-1,-1,-1,-1,-1,-1,-1,-1,-1,-1,-1,-1,-1,-1,-1,-1,-1,-1,-1,-1,-1,-1,-1,-1,-1,-1,-1,-1,-1,-1,-1,-1,-1,-1,-1,-1],"split_conditions":[1.3E1,6E0,7E0,1.147E1,8.7E-1,3.9E0,8E0,1.8E-1,3.8E3,6E0,6E0,1.2E3,1.5E1,6.2E-1,1.2E1,8.143E3,3.4E1,1E5,3E0,6.754E3,6.8E-1,1.1E1,3.38E0,-4.112404E5,-1.2986062E6,4.94E0,1.7609818E6,4E-1,2.46E1,5.234E3,2.46E1,4.783E3,4E0,5E0,4.2292916E5,2.836E3,1.456E3,3.947E3,4E0,4.6E-1,1E1,5E-1,1.1E1,1E1,3.03E0,9E0,4.94E0,-1.535191E6,-3.0823412E5,1.2077302E6,1.5E1,1.72E0,6.6760575E6,9E0,1.6E1,4.94E0,1.4E1,8.033374E2,4.9811348E4,-8.401068E4,-2.5113414E5,-8.48367E2,-4.703647E3,2.9493652E3,1.9587184E4,-4.3292105E4,-2.2436317E5,2.0085598E6,-2.6150658E4,-3.7698547E3,4.9695723E4,5.5442957E4,-1.8004307E4,1.3146075E5,1.8595691E6,-1.2257084E4,-9.634588E4,1.01685836E5,2.1620088E6,-3.079917E4,-6.278604E5,2.5423185E6,-2.3593283E5,-1.8014102E4,1.9696175E5,2.3508195E5,2.1369014E3,5.5770555E6,1.1251146E6,-2.4544555E6,7.2019825E5,-4.311007E5,4.9548555E6,-1.6579712E5,1.6655554E6,-4.4375894E3,-6.784839E5,2.0558346E6,-4.5278824E4],"split_indices":[1,1,0,2,2,2,0,2,3,0,0,3,1,2,0,3,0,2,0,3,2,1,2,0,0,2,0,2,2,3,2,3,1,0,0,3,3,3,1,2,1,2,1,1,2,0,2,0,0,0,1,2,0,0,1,2,0,0,0,0,0,0,0,0,0,0,0,0,0,0,0,0,0,0,0,0,0,0,0,0,0,0,0,0,0,0,0,0,0,0,0,0,0,0,0,0,0,0,0],"split_type":[0,0,0,0,0,0,0,0,0,0,0,0,0,0,0,0,0,0,0,0,0,0,0,0,0,0,0,0,0,0,0,0,0,0,0,0,0,0,0,0,0,0,0,0,0,0,0,0,0,0,0,0,0,0,0,0,0,0,0,0,0,0,0,0,0,0,0,0,0,0,0,0,0,0,0,0,0,0,0,0,0,0,0,0,0,0,0,0,0,0,0,0,0,0,0,0,0,0,0],"sum_hessian":[8.67927E5,8.67487E5,4.4E2,8.51476E5,1.6011E4,1.6E1,4.24E2,8.38645E5,1.2831E4,9.573E3,6.438E3,1.2E1,4E0,2.9E1,3.95E2,3.47425E5,4.9122E5,1.1131E4,1.7E3,5.015E3,4.558E3,3.501E3,2.937E3,4E0,8E0,3E0,1E0,6E0,2.3E1,1.06E2,2.89E2,3.473E5,1.25E2,4.91217E5,3E0,1.1106E4,2.5E1,3.9E1,1.661E3,4.278E3,7.37E2,4.161E3,3.97E2,3.499E3,2E0,1.902E3,1.035E3,1E0,2E0,2E0,4E0,2.2E1,1E0,3E0,1.03E2,2.76E2,1.3E1,3.46426E5,8.74E2,8.5E1,4E1,4.39896E5,5.1321E4,9.235E3,1.871E3,1.2E1,1.3E1,5E0,3.4E1,4.75E2,1.186E3,2.992E3,1.286E3,7.31E2,6E0,3.555E3,6.06E2,3.82E2,1.5E1,3.472E3,2.7E1,1E0,1E0,1.776E3,1.26E2,2.55E2,7.8E2,3E0,1E0,5E0,1.7E1,1E0,2E0,8.5E1,1.8E1,2.56E2,2E1,4E0,9E0],"tree_param":{"num_deleted":"0","num_feature":"4","num_nodes":"99","size_leaf_vector":"1"}},{"base_weights":[1.1067683E2,-4.8692245E1,3.136042E5,-1.7030581E3,8.900307E3,-2.4798198E5,8.252106E5,-1.6545728E3,-2.9024334E5,1.8700232E4,-4.0260415E3,-2.4555578E6,1.7508295E5,1.1195794E7,4.5114866E5,2.1789171E2,-6.175771E3,-6.348594E5,-5.347247E4,1.2052995E4,5.734185E4,-8.3163325E5,-3.1174812E3,1.2510299E6,-3.4628595E6,3.36122E5,-1.476445E6,5.117634E6,1.068113E6,1.211229E6,-7.5968175E5,-2.0034393E3,5.8406514E3,1.7168E4,-1.1180844E4,-6.850925E5,-2.2841433E5,9.136474E4,-5.842176E5,-1.2617821E3,3.036116E4,1.1781293E5,-6.169338E4,-6.7311575E5,-2.251783E6,2.8059775E5,-5.447868E3,-7.6261056E5,1.4583902E6,-6.208509E5,-5.0981085E6,-5.2150266E5,8.6774806E5,-2.9899882E6,4.1084678E5,9.5634756E5,-7.01066E5,6.6565875E5,9.993538E6,-1.0648195E6,3.5371475E6,-9.5005255E2,2.8438774E3,-9.608369E3,2.1108208E3,-1.7661764E3,1.0668239E4,-3.3712402E3,1.7322239E5,-6.245316E4,-2.1447339E5,2.3933951E4,-1.9977997E5,1.4045534E5,-3.8759516E4,-2.5497845E5,-3.635149E4,-6.897587E1,-1.0155563E5,4.9685664E4,8.411106E3,2.6163904E4,8.788689E4,-1.7739715E4,-9.8679806E5,-7.4636625E4,-2.516831E5,-1.9096603E5,-8.700779E5,6.1153824E4,5.7905675E5,-3.6642156E3,1.3788374E4,-5.5449494E5,2.8176025E5,-1.465338E6,8.818682E4,-5.843736E5,-1.9917944E6,6.3281406E4,-4.5177084E5,1.7271014E5,8.957379E5,-2.7460875E5,-1.1624224E6,1.301178E6,-2.3090339E5,-5.894016E5,2.739219E5,9.737627E5,-9.265692E4,-7.692737E5,6.9577155E6,-9.1303075E5,-1.9437867E5,2.2225105E6,-8.410587E5],"categories":[],"categories_nodes":[],"categories_segments":[],"categories_sizes":[],"default_left":[0,0,0,0,0,0,0,0,0,0,0,0,0,0,0,0,0,0,0,0,0,0,0,0,0,0,0,0,0,0,0,0,0,0,0,0,0,0,0,0,0,0,0,0,0,0,0,0,0,0,0,0,0,0,0,0,0,0,0,0,0,0,0,0,0,0,0,0,0,0,0,0,0,0,0,0,0,0,0,0,0,0,0,0,0,0,0,0,0,0,0,0,0,0,0,0,0,0,0,0,0,0,0,0,0,0,0,0,0,0,0,0,0,0,0,0,0],"id":15,"left_children":[1,3,5,7,9,11,13,15,17,19,21,23,25,27,29,31,33,35,37,39,41,43,45,47,49,51,53,-1,55,57,59,61,63,65,67,69,71,73,75,77,79,81,83,85,87,89,91,93,-1,95,97,99,101,103,105,-1,107,109,111,113,115,-1,-1,-1,-1,-1,-1,-1,-1,-1,-1,-1,-1,-1,-1,-1,-1,-1,-1,-1,-1,-1,-1,-1,-1,-1,-1,-1,-1,-1,-1,-1,-1,-1,-1,-1,-1,-1,-1,-1,-1,-1,-1,-1,-1,-1,-1,-1,-1,-1,-1,-1,-1,-1,-1,-1,-1],"loss_changes":[4.3362715E13,1.2843105E13,1.2690884E14,1.0242144E13,1.7145587E13,1.9749293E14,8.910537E14,6.1971156E12,1.0002244E13,1.9773415E13,4.3883866E13,1.3127631E14,4.7837232E13,4.5680702E14,2.0707373E14,6.465328E12,2.5047884E13,